[
  { "nodeid": 0, "depth": 0, "split": "f58", "split_condition": 2.5, "yes": 1, "no": 2, "missing": 1 , "children": [
    { "nodeid": 1, "depth": 1, "split": "f69", "split_condition": -0.506461084, "yes": 3, "no": 4, "missing": 3 , "children": [
      { "nodeid": 3, "depth": 2, "split": "f69", "split_condition": -0.716095924, "yes": 7, "no": 8, "missing": 7 , "children": [
        { "nodeid": 7, "depth": 3, "split": "f142", "split_condition": 4.5, "yes": 15, "no": 16, "missing": 15 , "children": [
          { "nodeid": 15, "depth": 4, "split": "f120", "split_condition": -6.64552021, "yes": 31, "no": 32, "missing": 31 , "children": [
            { "nodeid": 31, "depth": 5, "split": "f17", "split_condition": 187.5, "yes": 63, "no": 64, "missing": 63 , "children": [
              { "nodeid": 63, "leaf": -0.0813487768 }, 
              { "nodeid": 64, "leaf": -1.40563905 }
            ]}, 
            { "nodeid": 32, "depth": 5, "split": "f37", "split_condition": 3.44244909, "yes": 65, "no": 66, "missing": 65 , "children": [
              { "nodeid": 65, "leaf": 0.14204812 }, 
              { "nodeid": 66, "leaf": 2.46334291 }
            ]}
          ]}, 
          { "nodeid": 16, "depth": 4, "split": "f68", "split_condition": -0.746148944, "yes": 33, "no": 34, "missing": 33 , "children": [
            { "nodeid": 33, "depth": 5, "split": "f73", "split_condition": 0.5, "yes": 67, "no": 68, "missing": 67 , "children": [
              { "nodeid": 67, "leaf": 3.69732022 }, 
              { "nodeid": 68, "leaf": 0.827393651 }
            ]}, 
            { "nodeid": 34, "depth": 5, "split": "f115", "split_condition": -0.709191561, "yes": 69, "no": 70, "missing": 69 , "children": [
              { "nodeid": 69, "leaf": 0.175928444 }, 
              { "nodeid": 70, "leaf": 0.313371956 }
            ]}
          ]}
        ]}, 
        { "nodeid": 8, "depth": 3, "split": "f52", "split_condition": 1.5, "yes": 17, "no": 18, "missing": 17 , "children": [
          { "nodeid": 17, "depth": 4, "split": "f142", "split_condition": 14.5, "yes": 35, "no": 36, "missing": 35 , "children": [
            { "nodeid": 35, "depth": 5, "split": "f127", "split_condition": -0.228873223, "yes": 71, "no": 72, "missing": 71 , "children": [
              { "nodeid": 71, "leaf": -0.0370943435 }, 
              { "nodeid": 72, "leaf": 0.0808679238 }
            ]}, 
            { "nodeid": 36, "depth": 5, "split": "f77", "split_condition": 0.0249852538, "yes": 73, "no": 74, "missing": 73 , "children": [
              { "nodeid": 73, "leaf": 0.111737981 }, 
              { "nodeid": 74, "leaf": 0.217341527 }
            ]}
          ]}, 
          { "nodeid": 18, "depth": 4, "split": "f56", "split_condition": 0.472222209, "yes": 37, "no": 38, "missing": 37 , "children": [
            { "nodeid": 37, "depth": 5, "split": "f58", "split_condition": 1.5, "yes": 75, "no": 76, "missing": 75 , "children": [
              { "nodeid": 75, "leaf": 0.0197320022 }, 
              { "nodeid": 76, "leaf": -0.0695050657 }
            ]}, 
            { "nodeid": 38, "depth": 5, "split": "f26", "split_condition": -0.056215398, "yes": 77, "no": 78, "missing": 77 , "children": [
              { "nodeid": 77, "leaf": -0.220233023 }, 
              { "nodeid": 78, "leaf": 0.0952681676 }
            ]}
          ]}
        ]}
      ]}, 
      { "nodeid": 4, "depth": 2, "split": "f53", "split_condition": 0.00568181835, "yes": 9, "no": 10, "missing": 9 , "children": [
        { "nodeid": 9, "depth": 3, "split": "f142", "split_condition": 22.5, "yes": 19, "no": 20, "missing": 19 , "children": [
          { "nodeid": 19, "depth": 4, "split": "f111", "split_condition": 0.071326822, "yes": 39, "no": 40, "missing": 39 , "children": [
            { "nodeid": 39, "depth": 5, "split": "f92", "split_condition": 13.5, "yes": 79, "no": 80, "missing": 79 , "children": [
              { "nodeid": 79, "leaf": -0.0683861822 }, 
              { "nodeid": 80, "leaf": -3.23918509 }
            ]}, 
            { "nodeid": 40, "depth": 5, "split": "f17", "split_condition": 58.5, "yes": 81, "no": 82, "missing": 81 , "children": [
              { "nodeid": 81, "leaf": 0.113466375 }, 
              { "nodeid": 82, "leaf": -0.0349501595 }
            ]}
          ]}, 
          { "nodeid": 20, "depth": 4, "split": "f0", "split_condition": 61.5, "yes": 41, "no": 42, "missing": 41 , "children": [
            { "nodeid": 41, "depth": 5, "split": "f112", "split_condition": 7.82545471, "yes": 83, "no": 84, "missing": 83 , "children": [
              { "nodeid": 83, "leaf": 0.131239429 }, 
              { "nodeid": 84, "leaf": -0.11047969 }
            ]}, 
            { "nodeid": 42, "depth": 5, "split": "f15", "split_condition": 0.0146707166, "yes": 85, "no": 86, "missing": 85 , "children": [
              { "nodeid": 85, "leaf": 0.0938218683 }, 
              { "nodeid": 86, "leaf": 0.271092087 }
            ]}
          ]}
        ]}, 
        { "nodeid": 10, "depth": 3, "split": "f72", "split_condition": -0.110587612, "yes": 21, "no": 22, "missing": 21 , "children": [
          { "nodeid": 21, "depth": 4, "split": "f19", "split_condition": -0.596729636, "yes": 43, "no": 44, "missing": 43 , "children": [
            { "nodeid": 43, "depth": 5, "split": "f70", "split_condition": 0.0551825762, "yes": 87, "no": 88, "missing": 87 , "children": [
              { "nodeid": 87, "leaf": -0.102390639 }, 
              { "nodeid": 88, "leaf": -0.224248469 }
            ]}, 
            { "nodeid": 44, "depth": 5, "split": "f127", "split_condition": -0.651559532, "yes": 89, "no": 90, "missing": 89 , "children": [
              { "nodeid": 89, "leaf": -0.210484669 }, 
              { "nodeid": 90, "leaf": -0.0213650446 }
            ]}
          ]}, 
          { "nodeid": 22, "depth": 4, "split": "f68", "split_condition": 1.37109399, "yes": 45, "no": 46, "missing": 45 , "children": [
            { "nodeid": 45, "depth": 5, "split": "f19", "split_condition": -0.318810403, "yes": 91, "no": 92, "missing": 91 , "children": [
              { "nodeid": 91, "leaf": -0.322999924 }, 
              { "nodeid": 92, "leaf": -0.138403505 }
            ]}, 
            { "nodeid": 46, "depth": 5, "split": "f68", "split_condition": 3.76492262, "yes": 93, "no": 94, "missing": 93 , "children": [
              { "nodeid": 93, "leaf": -0.470619053 }, 
              { "nodeid": 94, "leaf": -0.879958212 }
            ]}
          ]}
        ]}
      ]}
    ]}, 
    { "nodeid": 2, "depth": 1, "split": "f103", "split_condition": 0, "yes": 5, "no": 6, "missing": 5 , "children": [
      { "nodeid": 5, "depth": 2, "split": "f45", "split_condition": 6.5, "yes": 11, "no": 12, "missing": 11 , "children": [
        { "nodeid": 11, "depth": 3, "split": "f4", "split_condition": 4.5, "yes": 23, "no": 24, "missing": 23 , "children": [
          { "nodeid": 23, "depth": 4, "split": "f36", "split_condition": 0.556007564, "yes": 47, "no": 48, "missing": 47 , "children": [
            { "nodeid": 47, "depth": 5, "split": "f23", "split_condition": 1.81576943, "yes": 95, "no": 96, "missing": 95 , "children": [
              { "nodeid": 95, "leaf": 0.0346065424 }, 
              { "nodeid": 96, "leaf": 0.312831938 }
            ]}, 
            { "nodeid": 48, "depth": 5, "split": "f43", "split_condition": 1.5, "yes": 97, "no": 98, "missing": 97 , "children": [
              { "nodeid": 97, "leaf": 0.30607447 }, 
              { "nodeid": 98, "leaf": 0.857813776 }
            ]}
          ]}, 
          { "nodeid": 24, "depth": 4, "split": "f21", "split_condition": -0.353220701, "yes": 49, "no": 50, "missing": 49 , "children": [
            { "nodeid": 49, "depth": 5, "split": "f20", "split_condition": -0.746456981, "yes": 99, "no": 100, "missing": 99 , "children": [
              { "nodeid": 99, "leaf": 1.4471761 }, 
              { "nodeid": 100, "leaf": 0.15363887 }
            ]}, 
            { "nodeid": 50, "depth": 5, "split": "f5", "split_condition": -2.58571434, "yes": 101, "no": 102, "missing": 101 , "children": [
              { "nodeid": 101, "leaf": -0.0142135592 }, 
              { "nodeid": 102, "leaf": -0.943838358 }
            ]}
          ]}
        ]}, 
        { "nodeid": 12, "depth": 3, "split": "f46", "split_condition": 51.5, "yes": 25, "no": 26, "missing": 25 , "children": [
          { "nodeid": 25, "depth": 4, "split": "f4", "split_condition": 6.5, "yes": 51, "no": 52, "missing": 51 , "children": [
            { "nodeid": 51, "depth": 5, "split": "f7", "split_condition": -1.5, "yes": 103, "no": 104, "missing": 103 , "children": [
              { "nodeid": 103, "leaf": 0.560015321 }, 
              { "nodeid": 104, "leaf": 0.337756097 }
            ]}, 
            { "nodeid": 52, "depth": 5, "split": "f22", "split_condition": 0.389479935, "yes": 105, "no": 106, "missing": 105 , "children": [
              { "nodeid": 105, "leaf": 0.266913742 }, 
              { "nodeid": 106, "leaf": -0.024334155 }
            ]}
          ]}, 
          { "nodeid": 26, "depth": 4, "split": "f16", "split_condition": 17.0289822, "yes": 53, "no": 54, "missing": 53 , "children": [
            { "nodeid": 53, "depth": 5, "split": "f29", "split_condition": 3159.1499, "yes": 107, "no": 108, "missing": 107 , "children": [
              { "nodeid": 107, "leaf": 0.662536383 }, 
              { "nodeid": 108, "leaf": -0.751281977 }
            ]}, 
            { "nodeid": 54, "depth": 5, "split": "f7", "split_condition": -1.5, "yes": 109, "no": 110, "missing": 109 , "children": [
              { "nodeid": 109, "leaf": -0.780739009 }, 
              { "nodeid": 110, "leaf": -0.0116238203 }
            ]}
          ]}
        ]}
      ]}, 
      { "nodeid": 6, "depth": 2, "split": "f58", "split_condition": 6.5, "yes": 13, "no": 14, "missing": 13 , "children": [
        { "nodeid": 13, "depth": 3, "split": "f69", "split_condition": -0.129814029, "yes": 27, "no": 28, "missing": 27 , "children": [
          { "nodeid": 27, "depth": 4, "split": "f55", "split_condition": 1.5, "yes": 55, "no": 56, "missing": 55 , "children": [
            { "nodeid": 55, "depth": 5, "split": "f108", "split_condition": 0.569498062, "yes": 111, "no": 112, "missing": 111 , "children": [
              { "nodeid": 111, "leaf": -0.282505453 }, 
              { "nodeid": 112, "leaf": -0.159953043 }
            ]}, 
            { "nodeid": 56, "depth": 5, "split": "f70", "split_condition": 0.000243550166, "yes": 113, "no": 114, "missing": 113 , "children": [
              { "nodeid": 113, "leaf": 0.00646508997 }, 
              { "nodeid": 114, "leaf": -0.128594577 }
            ]}
          ]}, 
          { "nodeid": 28, "depth": 4, "split": "f70", "split_condition": 0.478977591, "yes": 57, "no": 58, "missing": 57 , "children": [
            { "nodeid": 57, "depth": 5, "split": "f21", "split_condition": 0.830650568, "yes": 115, "no": 116, "missing": 115 , "children": [
              { "nodeid": 115, "leaf": -0.268996865 }, 
              { "nodeid": 116, "leaf": -0.177347869 }
            ]}, 
            { "nodeid": 58, "depth": 5, "split": "f54", "split_condition": 0.5, "yes": 117, "no": 118, "missing": 117 , "children": [
              { "nodeid": 117, "leaf": -0.327262342 }, 
              { "nodeid": 118, "leaf": -0.555836976 }
            ]}
          ]}
        ]}, 
        { "nodeid": 14, "depth": 3, "split": "f69", "split_condition": 0.634922743, "yes": 29, "no": 30, "missing": 29 , "children": [
          { "nodeid": 29, "depth": 4, "split": "f60", "split_condition": 0.379807711, "yes": 59, "no": 60, "missing": 59 , "children": [
            { "nodeid": 59, "depth": 5, "split": "f55", "split_condition": 1.5, "yes": 119, "no": 120, "missing": 119 , "children": [
              { "nodeid": 119, "leaf": -0.528411567 }, 
              { "nodeid": 120, "leaf": -0.280578256 }
            ]}, 
            { "nodeid": 60, "depth": 5, "split": "f22", "split_condition": 0.0739138424, "yes": 121, "no": 122, "missing": 121 , "children": [
              { "nodeid": 121, "leaf": -0.228103533 }, 
              { "nodeid": 122, "leaf": -0.183028206 }
            ]}
          ]}, 
          { "nodeid": 30, "depth": 4, "split": "f21", "split_condition": 0.59649241, "yes": 61, "no": 62, "missing": 61 , "children": [
            { "nodeid": 61, "depth": 5, "split": "f104", "split_condition": 5.41341591, "yes": 123, "no": 124, "missing": 123 , "children": [
              { "nodeid": 123, "leaf": -0.366370201 }, 
              { "nodeid": 124, "leaf": -0.474732697 }
            ]}, 
            { "nodeid": 62, "depth": 5, "split": "f70", "split_condition": 0.414220691, "yes": 125, "no": 126, "missing": 125 , "children": [
              { "nodeid": 125, "leaf": -0.268243462 }, 
              { "nodeid": 126, "leaf": -0.344860673 }
            ]}
          ]}
        ]}
      ]}
    ]}
  ]},
  { "nodeid": 0, "depth": 0, "split": "f58", "split_condition": 2.5, "yes": 1, "no": 2, "missing": 1 , "children": [
    { "nodeid": 1, "depth": 1, "split": "f69", "split_condition": -0.670280099, "yes": 3, "no": 4, "missing": 3 , "children": [
      { "nodeid": 3, "depth": 2, "split": "f69", "split_condition": -0.736554503, "yes": 7, "no": 8, "missing": 7 , "children": [
        { "nodeid": 7, "depth": 3, "split": "f53", "split_condition": 1.5, "yes": 15, "no": 16, "missing": 15 , "children": [
          { "nodeid": 15, "depth": 4, "split": "f105", "split_condition": 0.794864416, "yes": 31, "no": 32, "missing": 31 , "children": [
            { "nodeid": 31, "depth": 5, "split": "f128", "split_condition": 24.5, "yes": 63, "no": 64, "missing": 63 , "children": [
              { "nodeid": 63, "leaf": 0.151191205 }, 
              { "nodeid": 64, "leaf": 1.33837652 }
            ]}, 
            { "nodeid": 32, "depth": 5, "split": "f21", "split_condition": 0.285901904, "yes": 65, "no": 66, "missing": 65 , "children": [
              { "nodeid": 65, "leaf": 0.346633494 }, 
              { "nodeid": 66, "leaf": 1.09677267 }
            ]}
          ]}, 
          { "nodeid": 16, "depth": 4, "split": "f22", "split_condition": 0.323630691, "yes": 33, "no": 34, "missing": 33 , "children": [
            { "nodeid": 33, "depth": 5, "split": "f116", "split_condition": -0.738988817, "yes": 67, "no": 68, "missing": 67 , "children": [
              { "nodeid": 67, "leaf": 0.808751345 }, 
              { "nodeid": 68, "leaf": -0.109550841 }
            ]}, 
            { "nodeid": 34, "depth": 5, "split": "f10", "split_condition": -83, "yes": 69, "no": 70, "missing": 69 , "children": [
              { "nodeid": 69, "leaf": 0.297299773 }, 
              { "nodeid": 70, "leaf": -1.44145679 }
            ]}
          ]}
        ]}, 
        { "nodeid": 8, "depth": 3, "split": "f125", "split_condition": 0.00178099168, "yes": 17, "no": 18, "missing": 17 , "children": [
          { "nodeid": 17, "depth": 4, "split": "f22", "split_condition": 0.000304485147, "yes": 35, "no": 36, "missing": 35 , "children": [
            { "nodeid": 35, "depth": 5, "split": "f145", "split_condition": 2.5, "yes": 71, "no": 72, "missing": 71 , "children": [
              { "nodeid": 71, "leaf": -0.12062563 }, 
              { "nodeid": 72, "leaf": 0.722211182 }
            ]}, 
            { "nodeid": 36, "depth": 5, "split": "f25", "split_condition": 5.5, "yes": 73, "no": 74, "missing": 73 , "children": [
              { "nodeid": 73, "leaf": 0.00984882005 }, 
              { "nodeid": 74, "leaf": -0.507651985 }
            ]}
          ]}, 
          { "nodeid": 18, "depth": 4, "split": "f100", "split_condition": 8.5, "yes": 37, "no": 38, "missing": 37 , "children": [
            { "nodeid": 37, "depth": 5, "split": "f21", "split_condition": -0.671767712, "yes": 75, "no": 76, "missing": 75 , "children": [
              { "nodeid": 75, "leaf": 0.0163575541 }, 
              { "nodeid": 76, "leaf": 0.180162221 }
            ]}, 
            { "nodeid": 38, "depth": 5, "split": "f46", "split_condition": 20.5, "yes": 77, "no": 78, "missing": 77 , "children": [
              { "nodeid": 77, "leaf": 0.00446990784 }, 
              { "nodeid": 78, "leaf": 0.121653371 }
            ]}
          ]}
        ]}
      ]}, 
      { "nodeid": 4, "depth": 2, "split": "f53", "split_condition": 0.00568181835, "yes": 9, "no": 10, "missing": 9 , "children": [
        { "nodeid": 9, "depth": 3, "split": "f140", "split_condition": 9.5, "yes": 19, "no": 20, "missing": 19 , "children": [
          { "nodeid": 19, "depth": 4, "split": "f135", "split_condition": 36.5, "yes": 39, "no": 40, "missing": 39 , "children": [
            { "nodeid": 39, "depth": 5, "split": "f115", "split_condition": -0.668842316, "yes": 79, "no": 80, "missing": 79 , "children": [
              { "nodeid": 79, "leaf": 0.179472715 }, 
              { "nodeid": 80, "leaf": 0.00336573343 }
            ]}, 
            { "nodeid": 40, "depth": 5, "split": "f119", "split_condition": 1.40049207, "yes": 81, "no": 82, "missing": 81 , "children": [
              { "nodeid": 81, "leaf": -0.186524883 }, 
              { "nodeid": 82, "leaf": -0.054611817 }
            ]}
          ]}, 
          { "nodeid": 20, "depth": 4, "split": "f4", "split_condition": 11.5, "yes": 41, "no": 42, "missing": 41 , "children": [
            { "nodeid": 41, "depth": 5, "split": "f30", "split_condition": 0.740433812, "yes": 83, "no": 84, "missing": 83 , "children": [
              { "nodeid": 83, "leaf": -0.0737693012 }, 
              { "nodeid": 84, "leaf": 0.13912949 }
            ]}, 
            { "nodeid": 42, "depth": 5, "split": "f44", "split_condition": 40.5, "yes": 85, "no": 86, "missing": 85 , "children": [
              { "nodeid": 85, "leaf": 0.0201573893 }, 
              { "nodeid": 86, "leaf": 0.400939882 }
            ]}
          ]}
        ]}, 
        { "nodeid": 10, "depth": 3, "split": "f69", "split_condition": 0.0494823046, "yes": 21, "no": 22, "missing": 21 , "children": [
          { "nodeid": 21, "depth": 4, "split": "f22", "split_condition": 0.0644023642, "yes": 43, "no": 44, "missing": 43 , "children": [
            { "nodeid": 43, "depth": 5, "split": "f55", "split_condition": 1.5, "yes": 87, "no": 88, "missing": 87 , "children": [
              { "nodeid": 87, "leaf": -0.07494995 }, 
              { "nodeid": 88, "leaf": 0.00563124008 }
            ]}, 
            { "nodeid": 44, "depth": 5, "split": "f20", "split_condition": -0.647394717, "yes": 89, "no": 90, "missing": 89 , "children": [
              { "nodeid": 89, "leaf": 0.0393919945 }, 
              { "nodeid": 90, "leaf": 0.225784495 }
            ]}
          ]}, 
          { "nodeid": 22, "depth": 4, "split": "f57", "split_condition": 1.33489931, "yes": 45, "no": 46, "missing": 45 , "children": [
            { "nodeid": 45, "depth": 5, "split": "f69", "split_condition": 3.31626081, "yes": 91, "no": 92, "missing": 91 , "children": [
              { "nodeid": 91, "leaf": -0.200820103 }, 
              { "nodeid": 92, "leaf": -0.481152236 }
            ]}, 
            { "nodeid": 46, "depth": 5, "split": "f142", "split_condition": 95.5, "yes": 93, "no": 94, "missing": 93 , "children": [
              { "nodeid": 93, "leaf": -0.0790614858 }, 
              { "nodeid": 94, "leaf": 0.237498 }
            ]}
          ]}
        ]}
      ]}
    ]}, 
    { "nodeid": 2, "depth": 1, "split": "f82", "split_condition": 0.115767732, "yes": 5, "no": 6, "missing": 5 , "children": [
      { "nodeid": 5, "depth": 2, "split": "f69", "split_condition": -0.513673782, "yes": 11, "no": 12, "missing": 11 , "children": [
        { "nodeid": 11, "depth": 3, "split": "f94", "split_condition": 5.5, "yes": 23, "no": 24, "missing": 23 , "children": [
          { "nodeid": 23, "depth": 4, "split": "f19", "split_condition": -0.567724407, "yes": 47, "no": 48, "missing": 47 , "children": [
            { "nodeid": 47, "depth": 5, "split": "f69", "split_condition": -0.72090441, "yes": 95, "no": 96, "missing": 95 , "children": [
              { "nodeid": 95, "leaf": 0.115908504 }, 
              { "nodeid": 96, "leaf": -0.0741423965 }
            ]}, 
            { "nodeid": 48, "depth": 5, "split": "f53", "split_condition": 1.70833325, "yes": 97, "no": 98, "missing": 97 , "children": [
              { "nodeid": 97, "leaf": 0.0414149091 }, 
              { "nodeid": 98, "leaf": 0.208730713 }
            ]}
          ]}, 
          { "nodeid": 24, "depth": 4, "split": "f19", "split_condition": -0.667986155, "yes": 49, "no": 50, "missing": 49 , "children": [
            { "nodeid": 49, "depth": 5, "split": "f57", "split_condition": 0.565508723, "yes": 99, "no": 100, "missing": 99 , "children": [
              { "nodeid": 99, "leaf": -0.211351305 }, 
              { "nodeid": 100, "leaf": -0.128437296 }
            ]}, 
            { "nodeid": 50, "depth": 5, "split": "f0", "split_condition": 69.5, "yes": 101, "no": 102, "missing": 101 , "children": [
              { "nodeid": 101, "leaf": -0.113426119 }, 
              { "nodeid": 102, "leaf": -0.0430456512 }
            ]}
          ]}
        ]}, 
        { "nodeid": 12, "depth": 3, "split": "f13", "split_condition": -0.5, "yes": 25, "no": 26, "missing": 25 , "children": [
          { "nodeid": 25, "depth": 4, "split": "f70", "split_condition": 0.390639871, "yes": 51, "no": 52, "missing": 51 , "children": [
            { "nodeid": 51, "depth": 5, "split": "f58", "split_condition": 8.5, "yes": 103, "no": 104, "missing": 103 , "children": [
              { "nodeid": 103, "leaf": -0.089553982 }, 
              { "nodeid": 104, "leaf": -0.139533639 }
            ]}, 
            { "nodeid": 52, "depth": 5, "split": "f57", "split_condition": 0.846867561, "yes": 105, "no": 106, "missing": 105 , "children": [
              { "nodeid": 105, "leaf": -0.248433113 }, 
              { "nodeid": 106, "leaf": -0.152551919 }
            ]}
          ]}, 
          { "nodeid": 26, "depth": 4, "split": "f57", "split_condition": 0.851566732, "yes": 53, "no": 54, "missing": 53 , "children": [
            { "nodeid": 53, "depth": 5, "split": "f19", "split_condition": -0.666810155, "yes": 107, "no": 108, "missing": 107 , "children": [
              { "nodeid": 107, "leaf": -0.317998499 }, 
              { "nodeid": 108, "leaf": -0.214818016 }
            ]}, 
            { "nodeid": 54, "depth": 5, "split": "f53", "split_condition": 0.904411793, "yes": 109, "no": 110, "missing": 109 , "children": [
              { "nodeid": 109, "leaf": -0.16733557 }, 
              { "nodeid": 110, "leaf": -0.294998974 }
            ]}
          ]}
        ]}
      ]}, 
      { "nodeid": 6, "depth": 2, "split": "f44", "split_condition": 7.5, "yes": 13, "no": 14, "missing": 13 , "children": [
        { "nodeid": 13, "depth": 3, "split": "f12", "split_condition": 2.29285717, "yes": 27, "no": 28, "missing": 27 , "children": [
          { "nodeid": 27, "depth": 4, "split": "f20", "split_condition": -0.746306777, "yes": 55, "no": 56, "missing": 55 , "children": [
            { "nodeid": 55, "depth": 5, "split": "f26", "split_condition": 2.9152379, "yes": 111, "no": 112, "missing": 111 , "children": [
              { "nodeid": 111, "leaf": -0.152903587 }, 
              { "nodeid": 112, "leaf": 1.88520277 }
            ]}, 
            { "nodeid": 56, "depth": 5, "split": "f49", "split_condition": 1.5, "yes": 113, "no": 114, "missing": 113 , "children": [
              { "nodeid": 113, "leaf": 0.0304931048 }, 
              { "nodeid": 114, "leaf": 0.16057767 }
            ]}
          ]}, 
          { "nodeid": 28, "depth": 4, "split": "f108", "split_condition": 4.56818199, "yes": 57, "no": 58, "missing": 57 , "children": [
            { "nodeid": 57, "depth": 5, "split": "f0", "split_condition": 66.5, "yes": 115, "no": 116, "missing": 115 , "children": [
              { "nodeid": 115, "leaf": -0.327662885 }, 
              { "nodeid": 116, "leaf": 0.0495115556 }
            ]}, 
            { "nodeid": 58, "depth": 5, "split": "f38", "split_condition": -2.0689435, "yes": 117, "no": 118, "missing": 117 , "children": [
              { "nodeid": 117, "leaf": -1.08417082 }, 
              { "nodeid": 118, "leaf": 0.328487217 }
            ]}
          ]}
        ]}, 
        { "nodeid": 14, "depth": 3, "split": "f104", "split_condition": 4.31022835, "yes": 29, "no": 30, "missing": 29 , "children": [
          { "nodeid": 29, "depth": 4, "split": "f39", "split_condition": 9.5, "yes": 59, "no": 60, "missing": 59 , "children": [
            { "nodeid": 59, "depth": 5, "split": "f0", "split_condition": 65, "yes": 119, "no": 120, "missing": 119 , "children": [
              { "nodeid": 119, "leaf": 2.47530532 }, 
              { "nodeid": 120, "leaf": 1.05101931 }
            ]}, 
            { "nodeid": 60, "depth": 5, "split": "f19", "split_condition": -0.673226595, "yes": 121, "no": 122, "missing": 121 , "children": [
              { "nodeid": 121, "leaf": 0.431032628 }, 
              { "nodeid": 122, "leaf": 0.22522229 }
            ]}
          ]}, 
          { "nodeid": 30, "depth": 4, "split": "f79", "split_condition": 32.5744972, "yes": 61, "no": 62, "missing": 61 , "children": [
            { "nodeid": 61, "depth": 5, "split": "f140", "split_condition": 11.5, "yes": 123, "no": 124, "missing": 123 , "children": [
              { "nodeid": 123, "leaf": -0.574205458 }, 
              { "nodeid": 124, "leaf": -0.0154879997 }
            ]}, 
            { "nodeid": 62, "depth": 5, "split": "f32", "split_condition": 27.5, "yes": 125, "no": 126, "missing": 125 , "children": [
              { "nodeid": 125, "leaf": 0.166121572 }, 
              { "nodeid": 126, "leaf": 0.616390824 }
            ]}
          ]}
        ]}
      ]}
    ]}
  ]},
  { "nodeid": 0, "depth": 0, "split": "f58", "split_condition": 4.5, "yes": 1, "no": 2, "missing": 1 , "children": [
    { "nodeid": 1, "depth": 1, "split": "f69", "split_condition": -0.642511129, "yes": 3, "no": 4, "missing": 3 , "children": [
      { "nodeid": 3, "depth": 2, "split": "f69", "split_condition": -0.728928566, "yes": 7, "no": 8, "missing": 7 , "children": [
        { "nodeid": 7, "depth": 3, "split": "f71", "split_condition": 3.72451305, "yes": 15, "no": 16, "missing": 15 , "children": [
          { "nodeid": 15, "depth": 4, "split": "f19", "split_condition": -0.72035563, "yes": 31, "no": 32, "missing": 31 , "children": [
            { "nodeid": 31, "depth": 5, "split": "f37", "split_condition": 3.57135391, "yes": 61, "no": 62, "missing": 61 , "children": [
              { "nodeid": 61, "leaf": 0.0905264765 }, 
              { "nodeid": 62, "leaf": -0.0877366215 }
            ]}, 
            { "nodeid": 32, "depth": 5, "split": "f129", "split_condition": 2.6265471, "yes": 63, "no": 64, "missing": 63 , "children": [
              { "nodeid": 63, "leaf": 0.291787863 }, 
              { "nodeid": 64, "leaf": 0.125277176 }
            ]}
          ]}, 
          { "nodeid": 16, "leaf": -3.26016355 }
        ]}, 
        { "nodeid": 8, "depth": 3, "split": "f118", "split_condition": 0.00118017546, "yes": 17, "no": 18, "missing": 17 , "children": [
          { "nodeid": 17, "depth": 4, "split": "f133", "split_condition": 2.42539883, "yes": 33, "no": 34, "missing": 33 , "children": [
            { "nodeid": 33, "depth": 5, "split": "f69", "split_condition": -0.686809242, "yes": 65, "no": 66, "missing": 65 , "children": [
              { "nodeid": 65, "leaf": -0.0293103382 }, 
              { "nodeid": 66, "leaf": -0.125375211 }
            ]}, 
            { "nodeid": 34, "depth": 5, "split": "f67", "split_condition": -0.710629523, "yes": 67, "no": 68, "missing": 67 , "children": [
              { "nodeid": 67, "leaf": 0.0565960594 }, 
              { "nodeid": 68, "leaf": -0.0780164152 }
            ]}
          ]}, 
          { "nodeid": 18, "depth": 4, "split": "f100", "split_condition": 8.5, "yes": 35, "no": 36, "missing": 35 , "children": [
            { "nodeid": 35, "depth": 5, "split": "f46", "split_condition": 20.5, "yes": 69, "no": 70, "missing": 69 , "children": [
              { "nodeid": 69, "leaf": 0.0792641416 }, 
              { "nodeid": 70, "leaf": 0.198248804 }
            ]}, 
            { "nodeid": 36, "depth": 5, "split": "f72", "split_condition": -7.89858818, "yes": 71, "no": 72, "missing": 71 , "children": [
              { "nodeid": 71, "leaf": -0.0685037747 }, 
              { "nodeid": 72, "leaf": 0.040014904 }
            ]}
          ]}
        ]}
      ]}, 
      { "nodeid": 4, "depth": 2, "split": "f58", "split_condition": 1.5, "yes": 9, "no": 10, "missing": 9 , "children": [
        { "nodeid": 9, "depth": 3, "split": "f140", "split_condition": 7.5, "yes": 19, "no": 20, "missing": 19 , "children": [
          { "nodeid": 19, "depth": 4, "split": "f21", "split_condition": -0.679761827, "yes": 37, "no": 38, "missing": 37 , "children": [
            { "nodeid": 37, "depth": 5, "split": "f53", "split_condition": 0.416666687, "yes": 73, "no": 74, "missing": 73 , "children": [
              { "nodeid": 73, "leaf": -0.151355982 }, 
              { "nodeid": 74, "leaf": -0.925210416 }
            ]}, 
            { "nodeid": 38, "depth": 5, "split": "f135", "split_condition": 13.5, "yes": 75, "no": 76, "missing": 75 , "children": [
              { "nodeid": 75, "leaf": 0.00923791807 }, 
              { "nodeid": 76, "leaf": -0.0692904294 }
            ]}
          ]}, 
          { "nodeid": 20, "depth": 4, "split": "f4", "split_condition": 5.5, "yes": 39, "no": 40, "missing": 39 , "children": [
            { "nodeid": 39, "depth": 5, "split": "f86", "split_condition": -0.519075632, "yes": 77, "no": 78, "missing": 77 , "children": [
              { "nodeid": 77, "leaf": -0.136008278 }, 
              { "nodeid": 78, "leaf": 0.11036139 }
            ]}, 
            { "nodeid": 40, "depth": 5, "split": "f53", "split_condition": 0.00568181835, "yes": 79, "no": 80, "missing": 79 , "children": [
              { "nodeid": 79, "leaf": 0.0485748984 }, 
              { "nodeid": 80, "leaf": -0.0269597303 }
            ]}
          ]}
        ]}, 
        { "nodeid": 10, "depth": 3, "split": "f55", "split_condition": 1.5, "yes": 21, "no": 22, "missing": 21 , "children": [
          { "nodeid": 21, "depth": 4, "split": "f0", "split_condition": 66.5, "yes": 41, "no": 42, "missing": 41 , "children": [
            { "nodeid": 41, "depth": 5, "split": "f19", "split_condition": -0.728383422, "yes": 81, "no": 82, "missing": 81 , "children": [
              { "nodeid": 81, "leaf": -0.665736794 }, 
              { "nodeid": 82, "leaf": -0.156953871 }
            ]}, 
            { "nodeid": 42, "depth": 5, "split": "f63", "split_condition": 17.3285713, "yes": 83, "no": 84, "missing": 83 , "children": [
              { "nodeid": 83, "leaf": -0.0691495836 }, 
              { "nodeid": 84, "leaf": -0.393264443 }
            ]}
          ]}, 
          { "nodeid": 22, "depth": 4, "split": "f69", "split_condition": 0.22830531, "yes": 43, "no": 44, "missing": 43 , "children": [
            { "nodeid": 43, "depth": 5, "split": "f22", "split_condition": 0.0450590923, "yes": 85, "no": 86, "missing": 85 , "children": [
              { "nodeid": 85, "leaf": -0.0437728353 }, 
              { "nodeid": 86, "leaf": 0.0331968553 }
            ]}, 
            { "nodeid": 44, "depth": 5, "split": "f67", "split_condition": 1.14550352, "yes": 87, "no": 88, "missing": 87 , "children": [
              { "nodeid": 87, "leaf": -0.0886505544 }, 
              { "nodeid": 88, "leaf": -0.259168416 }
            ]}
          ]}
        ]}
      ]}
    ]}, 
    { "nodeid": 2, "depth": 1, "split": "f103", "split_condition": 0, "yes": 5, "no": 6, "missing": 5 , "children": [
      { "nodeid": 5, "depth": 2, "split": "f24", "split_condition": -12.8347378, "yes": 11, "no": 12, "missing": 11 , "children": [
        { "nodeid": 11, "depth": 3, "split": "f1", "split_condition": 4.5, "yes": 23, "no": 24, "missing": 23 , "children": [
          { "nodeid": 23, "depth": 4, "split": "f25", "split_condition": 59, "yes": 45, "no": 46, "missing": 45 , "children": [
            { "nodeid": 45, "depth": 5, "split": "f12", "split_condition": 0.338308454, "yes": 89, "no": 90, "missing": 89 , "children": [
              { "nodeid": 89, "leaf": 0.225363091 }, 
              { "nodeid": 90, "leaf": 0.0934796557 }
            ]}, 
            { "nodeid": 46, "leaf": 2.25316334 }
          ]}, 
          { "nodeid": 24, "depth": 4, "split": "f31", "split_condition": 672.695557, "yes": 47, "no": 48, "missing": 47 , "children": [
            { "nodeid": 47, "depth": 5, "split": "f38", "split_condition": 15.4451733, "yes": 91, "no": 92, "missing": 91 , "children": [
              { "nodeid": 91, "leaf": 0.106628247 }, 
              { "nodeid": 92, "leaf": -0.157658428 }
            ]}, 
            { "nodeid": 48, "depth": 5, "split": "f44", "split_condition": 20.5, "yes": 93, "no": 94, "missing": 93 , "children": [
              { "nodeid": 93, "leaf": 0.188026637 }, 
              { "nodeid": 94, "leaf": 0.860330224 }
            ]}
          ]}
        ]}, 
        { "nodeid": 12, "depth": 3, "split": "f4", "split_condition": 6.5, "yes": 25, "no": 26, "missing": 25 , "children": [
          { "nodeid": 25, "depth": 4, "split": "f29", "split_condition": 2.44412768e-05, "yes": 49, "no": 50, "missing": 49 , "children": [
            { "nodeid": 49, "depth": 5, "split": "f15", "split_condition": 9.3571434, "yes": 95, "no": 96, "missing": 95 , "children": [
              { "nodeid": 95, "leaf": -0.135364607 }, 
              { "nodeid": 96, "leaf": 0.319914132 }
            ]}, 
            { "nodeid": 50, "depth": 5, "split": "f29", "split_condition": 0.000189783867, "yes": 97, "no": 98, "missing": 97 , "children": [
              { "nodeid": 97, "leaf": 0.480344057 }, 
              { "nodeid": 98, "leaf": 0.132143974 }
            ]}
          ]}, 
          { "nodeid": 26, "depth": 4, "split": "f16", "split_condition": 1.63447452, "yes": 51, "no": 52, "missing": 51 , "children": [
            { "nodeid": 51, "depth": 5, "split": "f9", "split_condition": 0.371193737, "yes": 99, "no": 100, "missing": 99 , "children": [
              { "nodeid": 99, "leaf": -0.204691723 }, 
              { "nodeid": 100, "leaf": 0.0588321574 }
            ]}, 
            { "nodeid": 52, "depth": 5, "split": "f8", "split_condition": 12.8243828, "yes": 101, "no": 102, "missing": 101 , "children": [
              { "nodeid": 101, "leaf": -0.00993234664 }, 
              { "nodeid": 102, "leaf": 0.335272729 }
            ]}
          ]}
        ]}
      ]}, 
      { "nodeid": 6, "depth": 2, "split": "f0", "split_condition": 64.5, "yes": 13, "no": 14, "missing": 13 , "children": [
        { "nodeid": 13, "depth": 3, "split": "f4", "split_condition": 10.5, "yes": 27, "no": 28, "missing": 27 , "children": [
          { "nodeid": 27, "depth": 4, "split": "f58", "split_condition": 11.5, "yes": 53, "no": 54, "missing": 53 , "children": [
            { "nodeid": 53, "depth": 5, "split": "f53", "split_condition": 1.70833325, "yes": 103, "no": 104, "missing": 103 , "children": [
              { "nodeid": 103, "leaf": -0.182281494 }, 
              { "nodeid": 104, "leaf": -0.0257107764 }
            ]}, 
            { "nodeid": 54, "depth": 5, "split": "f56", "split_condition": 0.554076195, "yes": 105, "no": 106, "missing": 105 , "children": [
              { "nodeid": 105, "leaf": -0.298306704 }, 
              { "nodeid": 106, "leaf": -0.218812764 }
            ]}
          ]}, 
          { "nodeid": 28, "depth": 4, "split": "f70", "split_condition": 0.0837075487, "yes": 55, "no": 56, "missing": 55 , "children": [
            { "nodeid": 55, "depth": 5, "split": "f46", "split_condition": 38.5, "yes": 107, "no": 108, "missing": 107 , "children": [
              { "nodeid": 107, "leaf": -0.134166643 }, 
              { "nodeid": 108, "leaf": -0.0840969086 }
            ]}, 
            { "nodeid": 56, "depth": 5, "split": "f21", "split_condition": -0.202692628, "yes": 109, "no": 110, "missing": 109 , "children": [
              { "nodeid": 109, "leaf": -0.381517678 }, 
              { "nodeid": 110, "leaf": -0.151122659 }
            ]}
          ]}
        ]}, 
        { "nodeid": 14, "depth": 3, "split": "f69", "split_condition": 0.266683042, "yes": 29, "no": 30, "missing": 29 , "children": [
          { "nodeid": 29, "depth": 4, "split": "f61", "split_condition": 0.5, "yes": 57, "no": 58, "missing": 57 , "children": [
            { "nodeid": 57, "depth": 5, "split": "f56", "split_condition": 0.568787456, "yes": 111, "no": 112, "missing": 111 , "children": [
              { "nodeid": 111, "leaf": -0.131084874 }, 
              { "nodeid": 112, "leaf": -0.0852794722 }
            ]}, 
            { "nodeid": 58, "depth": 5, "split": "f118", "split_condition": 0.20079723, "yes": 113, "no": 114, "missing": 113 , "children": [
              { "nodeid": 113, "leaf": -0.0665611625 }, 
              { "nodeid": 114, "leaf": 0.0311604552 }
            ]}
          ]}, 
          { "nodeid": 30, "depth": 4, "split": "f57", "split_condition": 0.201513588, "yes": 59, "no": 60, "missing": 59 , "children": [
            { "nodeid": 59, "depth": 5, "split": "f56", "split_condition": 0.575907171, "yes": 115, "no": 116, "missing": 115 , "children": [
              { "nodeid": 115, "leaf": -0.255374342 }, 
              { "nodeid": 116, "leaf": -0.16443494 }
            ]}, 
            { "nodeid": 60, "depth": 5, "split": "f21", "split_condition": 2.19152641, "yes": 117, "no": 118, "missing": 117 , "children": [
              { "nodeid": 117, "leaf": -0.149636954 }, 
              { "nodeid": 118, "leaf": -0.0975093618 }
            ]}
          ]}
        ]}
      ]}
    ]}
  ]},
  { "nodeid": 0, "depth": 0, "split": "f58", "split_condition": 2.5, "yes": 1, "no": 2, "missing": 1 , "children": [
    { "nodeid": 1, "depth": 1, "split": "f69", "split_condition": -0.505995274, "yes": 3, "no": 4, "missing": 3 , "children": [
      { "nodeid": 3, "depth": 2, "split": "f53", "split_condition": 1.5, "yes": 7, "no": 8, "missing": 7 , "children": [
        { "nodeid": 7, "depth": 3, "split": "f47", "split_condition": 6.5, "yes": 15, "no": 16, "missing": 15 , "children": [
          { "nodeid": 15, "depth": 4, "split": "f100", "split_condition": 9.5, "yes": 31, "no": 32, "missing": 31 , "children": [
            { "nodeid": 31, "depth": 5, "split": "f142", "split_condition": 5.5, "yes": 63, "no": 64, "missing": 63 , "children": [
              { "nodeid": 63, "leaf": -0.0228036232 }, 
              { "nodeid": 64, "leaf": 0.0620606057 }
            ]}, 
            { "nodeid": 32, "depth": 5, "split": "f45", "split_condition": 8.5, "yes": 65, "no": 66, "missing": 65 , "children": [
              { "nodeid": 65, "leaf": -0.0539321341 }, 
              { "nodeid": 66, "leaf": 0.0175490417 }
            ]}
          ]}, 
          { "nodeid": 16, "depth": 4, "split": "f105", "split_condition": -1.82427931, "yes": 33, "no": 34, "missing": 33 , "children": [
            { "nodeid": 33, "depth": 5, "split": "f23", "split_condition": 3.03738999, "yes": 67, "no": 68, "missing": 67 , "children": [
              { "nodeid": 67, "leaf": 0.34413594 }, 
              { "nodeid": 68, "leaf": 1.24055839 }
            ]}, 
            { "nodeid": 34, "depth": 5, "split": "f104", "split_condition": 1.23522544, "yes": 69, "no": 70, "missing": 69 , "children": [
              { "nodeid": 69, "leaf": 0.429625928 }, 
              { "nodeid": 70, "leaf": 0.111513078 }
            ]}
          ]}
        ]}, 
        { "nodeid": 8, "depth": 3, "split": "f67", "split_condition": -0.736479402, "yes": 17, "no": 18, "missing": 17 , "children": [
          { "nodeid": 17, "depth": 4, "split": "f21", "split_condition": 0.473620623, "yes": 35, "no": 36, "missing": 35 , "children": [
            { "nodeid": 35, "depth": 5, "split": "f21", "split_condition": 0.0869959891, "yes": 71, "no": 72, "missing": 71 , "children": [
              { "nodeid": 71, "leaf": 0.430852085 }, 
              { "nodeid": 72, "leaf": 1.24713838 }
            ]}, 
            { "nodeid": 36, "depth": 5, "split": "f47", "split_condition": 8, "yes": 73, "no": 74, "missing": 73 , "children": [
              { "nodeid": 73, "leaf": -0.238603979 }, 
              { "nodeid": 74, "leaf": 1.42050624 }
            ]}
          ]}, 
          { "nodeid": 18, "depth": 4, "split": "f118", "split_condition": 0.012322112, "yes": 37, "no": 38, "missing": 37 , "children": [
            { "nodeid": 37, "depth": 5, "split": "f133", "split_condition": 2.19496369, "yes": 75, "no": 76, "missing": 75 , "children": [
              { "nodeid": 75, "leaf": -0.0393194109 }, 
              { "nodeid": 76, "leaf": 0.0870436653 }
            ]}, 
            { "nodeid": 38, "depth": 5, "split": "f67", "split_condition": -0.547235489, "yes": 77, "no": 78, "missing": 77 , "children": [
              { "nodeid": 77, "leaf": 0.248471141 }, 
              { "nodeid": 78, "leaf": -0.0443065837 }
            ]}
          ]}
        ]}
      ]}, 
      { "nodeid": 4, "depth": 2, "split": "f143", "split_condition": 5.5, "yes": 9, "no": 10, "missing": 9 , "children": [
        { "nodeid": 9, "depth": 3, "split": "f21", "split_condition": -0.641504288, "yes": 19, "no": 20, "missing": 19 , "children": [
          { "nodeid": 19, "depth": 4, "split": "f72", "split_condition": -0.983462691, "yes": 39, "no": 40, "missing": 39 , "children": [
            { "nodeid": 39, "depth": 5, "split": "f126", "split_condition": 5.82063055, "yes": 79, "no": 80, "missing": 79 , "children": [
              { "nodeid": 79, "leaf": -0.124172792 }, 
              { "nodeid": 80, "leaf": -0.891169548 }
            ]}, 
            { "nodeid": 40, "depth": 5, "split": "f71", "split_condition": -0.892692089, "yes": 81, "no": 82, "missing": 81 , "children": [
              { "nodeid": 81, "leaf": 0.51542145 }, 
              { "nodeid": 82, "leaf": -0.609419644 }
            ]}
          ]}, 
          { "nodeid": 20, "depth": 4, "split": "f53", "split_condition": 0.00606060587, "yes": 41, "no": 42, "missing": 41 , "children": [
            { "nodeid": 41, "depth": 5, "split": "f63", "split_condition": 0.398830414, "yes": 83, "no": 84, "missing": 83 , "children": [
              { "nodeid": 83, "leaf": -0.035121318 }, 
              { "nodeid": 84, "leaf": 0.0499213934 }
            ]}, 
            { "nodeid": 42, "depth": 5, "split": "f67", "split_condition": 1.13678312, "yes": 85, "no": 86, "missing": 85 , "children": [
              { "nodeid": 85, "leaf": -0.0451919064 }, 
              { "nodeid": 86, "leaf": -0.209809661 }
            ]}
          ]}
        ]}, 
        { "nodeid": 10, "depth": 3, "split": "f4", "split_condition": 6.5, "yes": 21, "no": 22, "missing": 21 , "children": [
          { "nodeid": 21, "depth": 4, "split": "f45", "split_condition": 13.5, "yes": 43, "no": 44, "missing": 43 , "children": [
            { "nodeid": 43, "depth": 5, "split": "f32", "split_condition": 19.5, "yes": 87, "no": 88, "missing": 87 , "children": [
              { "nodeid": 87, "leaf": 0.0665754676 }, 
              { "nodeid": 88, "leaf": -0.609106719 }
            ]}, 
            { "nodeid": 44, "depth": 5, "split": "f24", "split_condition": 29.8292046, "yes": 89, "no": 90, "missing": 89 , "children": [
              { "nodeid": 89, "leaf": 0.210602567 }, 
              { "nodeid": 90, "leaf": 1.27972913 }
            ]}
          ]}, 
          { "nodeid": 22, "depth": 4, "split": "f0", "split_condition": 16, "yes": 45, "no": 46, "missing": 45 , "children": [
            { "nodeid": 45, "leaf": -1.70510364 }, 
            { "nodeid": 46, "depth": 5, "split": "f53", "split_condition": 0.0194193069, "yes": 91, "no": 92, "missing": 91 , "children": [
              { "nodeid": 91, "leaf": 0.0826575682 }, 
              { "nodeid": 92, "leaf": -0.01310727 }
            ]}
          ]}
        ]}
      ]}
    ]}, 
    { "nodeid": 2, "depth": 1, "split": "f58", "split_condition": 9.55831242, "yes": 5, "no": 6, "missing": 5 , "children": [
      { "nodeid": 5, "depth": 2, "split": "f70", "split_condition": 533.187622, "yes": 11, "no": 12, "missing": 11 , "children": [
        { "nodeid": 11, "depth": 3, "split": "f69", "split_condition": -0.292303234, "yes": 23, "no": 24, "missing": 23 , "children": [
          { "nodeid": 23, "depth": 4, "split": "f56", "split_condition": 0.723748446, "yes": 47, "no": 48, "missing": 47 , "children": [
            { "nodeid": 47, "depth": 5, "split": "f53", "split_condition": 1.70833325, "yes": 93, "no": 94, "missing": 93 , "children": [
              { "nodeid": 93, "leaf": -0.0631964877 }, 
              { "nodeid": 94, "leaf": 0.0433447622 }
            ]}, 
            { "nodeid": 48, "depth": 5, "split": "f100", "split_condition": 5.5, "yes": 95, "no": 96, "missing": 95 , "children": [
              { "nodeid": 95, "leaf": 0.0895916075 }, 
              { "nodeid": 96, "leaf": -0.00268504838 }
            ]}
          ]}, 
          { "nodeid": 24, "depth": 4, "split": "f21", "split_condition": -0.319794238, "yes": 49, "no": 50, "missing": 49 , "children": [
            { "nodeid": 49, "depth": 5, "split": "f0", "split_condition": 70.5, "yes": 97, "no": 98, "missing": 97 , "children": [
              { "nodeid": 97, "leaf": -0.223302275 }, 
              { "nodeid": 98, "leaf": -0.0894159302 }
            ]}, 
            { "nodeid": 50, "depth": 5, "split": "f70", "split_condition": 0.517313957, "yes": 99, "no": 100, "missing": 99 , "children": [
              { "nodeid": 99, "leaf": -0.0716667101 }, 
              { "nodeid": 100, "leaf": -0.144446209 }
            ]}
          ]}
        ]}, 
        { "nodeid": 12, "depth": 3, "split": "f142", "split_condition": 21.5, "yes": 25, "no": 26, "missing": 25 , "children": [
          { "nodeid": 25, "depth": 4, "split": "f37", "split_condition": 5.77566242, "yes": 51, "no": 52, "missing": 51 , "children": [
            { "nodeid": 51, "depth": 5, "split": "f20", "split_condition": -0.666839004, "yes": 101, "no": 102, "missing": 101 , "children": [
              { "nodeid": 101, "leaf": 0.0759816393 }, 
              { "nodeid": 102, "leaf": -0.0735299885 }
            ]}, 
            { "nodeid": 52, "depth": 5, "split": "f49", "split_condition": 1.5, "yes": 103, "no": 104, "missing": 103 , "children": [
              { "nodeid": 103, "leaf": -0.507343471 }, 
              { "nodeid": 104, "leaf": -0.0524672866 }
            ]}
          ]}, 
          { "nodeid": 26, "depth": 4, "split": "f133", "split_condition": 5.5672369, "yes": 53, "no": 54, "missing": 53 , "children": [
            { "nodeid": 53, "depth": 5, "split": "f35", "split_condition": 21.631382, "yes": 105, "no": 106, "missing": 105 , "children": [
              { "nodeid": 105, "leaf": 0.239820287 }, 
              { "nodeid": 106, "leaf": 0.0126399249 }
            ]}, 
            { "nodeid": 54, "depth": 5, "split": "f125", "split_condition": 5.16469097, "yes": 107, "no": 108, "missing": 107 , "children": [
              { "nodeid": 107, "leaf": 0.0754418075 }, 
              { "nodeid": 108, "leaf": 0.47234726 }
            ]}
          ]}
        ]}
      ]}, 
      { "nodeid": 6, "depth": 2, "split": "f0", "split_condition": 70.5, "yes": 13, "no": 14, "missing": 13 , "children": [
        { "nodeid": 13, "depth": 3, "split": "f44", "split_condition": 23.5, "yes": 27, "no": 28, "missing": 27 , "children": [
          { "nodeid": 27, "depth": 4, "split": "f60", "split_condition": 0.350383639, "yes": 55, "no": 56, "missing": 55 , "children": [
            { "nodeid": 55, "depth": 5, "split": "f56", "split_condition": 0.503114402, "yes": 109, "no": 110, "missing": 109 , "children": [
              { "nodeid": 109, "leaf": -0.226439536 }, 
              { "nodeid": 110, "leaf": -0.151227653 }
            ]}, 
            { "nodeid": 56, "depth": 5, "split": "f65", "split_condition": 17.5, "yes": 111, "no": 112, "missing": 111 , "children": [
              { "nodeid": 111, "leaf": -0.069213286 }, 
              { "nodeid": 112, "leaf": -0.134177774 }
            ]}
          ]}, 
          { "nodeid": 28, "depth": 4, "split": "f58", "split_condition": 24.5, "yes": 57, "no": 58, "missing": 57 , "children": [
            { "nodeid": 57, "depth": 5, "split": "f56", "split_condition": 0.404726744, "yes": 113, "no": 114, "missing": 113 , "children": [
              { "nodeid": 113, "leaf": -0.117595889 }, 
              { "nodeid": 114, "leaf": -0.06131671 }
            ]}, 
            { "nodeid": 58, "depth": 5, "split": "f46", "split_condition": 114.5, "yes": 115, "no": 116, "missing": 115 , "children": [
              { "nodeid": 115, "leaf": -0.142038584 }, 
              { "nodeid": 116, "leaf": -0.0785833001 }
            ]}
          ]}
        ]}, 
        { "nodeid": 14, "depth": 3, "split": "f105", "split_condition": 0.313438475, "yes": 29, "no": 30, "missing": 29 , "children": [
          { "nodeid": 29, "depth": 4, "split": "f61", "split_condition": 0.5, "yes": 59, "no": 60, "missing": 59 , "children": [
            { "nodeid": 59, "depth": 5, "split": "f69", "split_condition": 4.16225338, "yes": 117, "no": 118, "missing": 117 , "children": [
              { "nodeid": 117, "leaf": -0.098190546 }, 
              { "nodeid": 118, "leaf": -0.224647269 }
            ]}, 
            { "nodeid": 60, "depth": 5, "split": "f120", "split_condition": -22.7992821, "yes": 119, "no": 120, "missing": 119 , "children": [
              { "nodeid": 119, "leaf": -0.0800089017 }, 
              { "nodeid": 120, "leaf": -0.00611538952 }
            ]}
          ]}, 
          { "nodeid": 30, "depth": 4, "split": "f70", "split_condition": 0.328306317, "yes": 61, "no": 62, "missing": 61 , "children": [
            { "nodeid": 61, "depth": 5, "split": "f1", "split_condition": 1.5, "yes": 121, "no": 122, "missing": 121 , "children": [
              { "nodeid": 121, "leaf": 0.0364625826 }, 
              { "nodeid": 122, "leaf": -0.0422422588 }
            ]}, 
            { "nodeid": 62, "depth": 5, "split": "f21", "split_condition": 0.784293771, "yes": 123, "no": 124, "missing": 123 , "children": [
              { "nodeid": 123, "leaf": -0.221460834 }, 
              { "nodeid": 124, "leaf": -0.0653023496 }
            ]}
          ]}
        ]}
      ]}
    ]}
  ]},
  { "nodeid": 0, "depth": 0, "split": "f58", "split_condition": 4.5, "yes": 1, "no": 2, "missing": 1 , "children": [
    { "nodeid": 1, "depth": 1, "split": "f69", "split_condition": -0.268486202, "yes": 3, "no": 4, "missing": 3 , "children": [
      { "nodeid": 3, "depth": 2, "split": "f118", "split_condition": 0.0407419726, "yes": 7, "no": 8, "missing": 7 , "children": [
        { "nodeid": 7, "depth": 3, "split": "f69", "split_condition": -0.716095924, "yes": 15, "no": 16, "missing": 15 , "children": [
          { "nodeid": 15, "depth": 4, "split": "f68", "split_condition": -0.746780097, "yes": 31, "no": 32, "missing": 31 , "children": [
            { "nodeid": 31, "depth": 5, "split": "f19", "split_condition": -0.669558406, "yes": 63, "no": 64, "missing": 63 , "children": [
              { "nodeid": 63, "leaf": 0.259714544 }, 
              { "nodeid": 64, "leaf": 2.37658262 }
            ]}, 
            { "nodeid": 32, "depth": 5, "split": "f25", "split_condition": 5.5, "yes": 65, "no": 66, "missing": 65 , "children": [
              { "nodeid": 65, "leaf": -0.00266269175 }, 
              { "nodeid": 66, "leaf": 0.101203039 }
            ]}
          ]}, 
          { "nodeid": 16, "depth": 4, "split": "f53", "split_condition": 0.00568181835, "yes": 33, "no": 34, "missing": 33 , "children": [
            { "nodeid": 33, "depth": 5, "split": "f109", "split_condition": 0.5, "yes": 67, "no": 68, "missing": 67 , "children": [
              { "nodeid": 67, "leaf": 0.0708729103 }, 
              { "nodeid": 68, "leaf": -0.0301139485 }
            ]}, 
            { "nodeid": 34, "depth": 5, "split": "f56", "split_condition": 0.376286864, "yes": 69, "no": 70, "missing": 69 , "children": [
              { "nodeid": 69, "leaf": -0.0456549414 }, 
              { "nodeid": 70, "leaf": 0.00104471191 }
            ]}
          ]}
        ]}, 
        { "nodeid": 8, "depth": 3, "split": "f133", "split_condition": 4.76539707, "yes": 17, "no": 18, "missing": 17 , "children": [
          { "nodeid": 17, "depth": 4, "split": "f75", "split_condition": -0.0326833911, "yes": 35, "no": 36, "missing": 35 , "children": [
            { "nodeid": 35, "depth": 5, "split": "f9", "split_condition": -0.880280495, "yes": 71, "no": 72, "missing": 71 , "children": [
              { "nodeid": 71, "leaf": 0.135948882 }, 
              { "nodeid": 72, "leaf": 0.0441314802 }
            ]}, 
            { "nodeid": 36, "depth": 5, "split": "f30", "split_condition": 1.6412065, "yes": 73, "no": 74, "missing": 73 , "children": [
              { "nodeid": 73, "leaf": 0.0302002262 }, 
              { "nodeid": 74, "leaf": 0.185324356 }
            ]}
          ]}, 
          { "nodeid": 18, "depth": 4, "split": "f31", "split_condition": 1711.16064, "yes": 37, "no": 38, "missing": 37 , "children": [
            { "nodeid": 37, "depth": 5, "split": "f47", "split_condition": 4.5, "yes": 75, "no": 76, "missing": 75 , "children": [
              { "nodeid": 75, "leaf": -0.0508938096 }, 
              { "nodeid": 76, "leaf": 0.0453056693 }
            ]}, 
            { "nodeid": 38, "depth": 5, "split": "f4", "split_condition": 8.5, "yes": 77, "no": 78, "missing": 77 , "children": [
              { "nodeid": 77, "leaf": -2.93889141 }, 
              { "nodeid": 78, "leaf": -0.0119483238 }
            ]}
          ]}
        ]}
      ]}, 
      { "nodeid": 4, "depth": 2, "split": "f54", "split_condition": 0.5, "yes": 9, "no": 10, "missing": 9 , "children": [
        { "nodeid": 9, "depth": 3, "split": "f42", "split_condition": 2.5, "yes": 19, "no": 20, "missing": 19 , "children": [
          { "nodeid": 19, "depth": 4, "split": "f22", "split_condition": 0.000710608787, "yes": 39, "no": 40, "missing": 39 , "children": [
            { "nodeid": 39, "depth": 5, "split": "f7", "split_condition": -2.5, "yes": 79, "no": 80, "missing": 79 , "children": [
              { "nodeid": 79, "leaf": -0.812013686 }, 
              { "nodeid": 80, "leaf": -0.225755692 }
            ]}, 
            { "nodeid": 40, "depth": 5, "split": "f20", "split_condition": -0.662841976, "yes": 81, "no": 82, "missing": 81 , "children": [
              { "nodeid": 81, "leaf": -0.0554888584 }, 
              { "nodeid": 82, "leaf": 0.0271176435 }
            ]}
          ]}, 
          { "nodeid": 20, "depth": 4, "split": "f80", "split_condition": 10.5, "yes": 41, "no": 42, "missing": 41 , "children": [
            { "nodeid": 41, "depth": 5, "split": "f69", "split_condition": 11.1991692, "yes": 83, "no": 84, "missing": 83 , "children": [
              { "nodeid": 83, "leaf": 0.0157455951 }, 
              { "nodeid": 84, "leaf": -0.380527258 }
            ]}, 
            { "nodeid": 42, "depth": 5, "split": "f45", "split_condition": 23.5, "yes": 85, "no": 86, "missing": 85 , "children": [
              { "nodeid": 85, "leaf": 0.317095369 }, 
              { "nodeid": 86, "leaf": 1.14247334 }
            ]}
          ]}
        ]}, 
        { "nodeid": 10, "depth": 3, "split": "f69", "split_condition": 4.15406418, "yes": 21, "no": 22, "missing": 21 , "children": [
          { "nodeid": 21, "depth": 4, "split": "f19", "split_condition": -0.188536808, "yes": 43, "no": 44, "missing": 43 , "children": [
            { "nodeid": 43, "depth": 5, "split": "f21", "split_condition": 0.0454552025, "yes": 87, "no": 88, "missing": 87 , "children": [
              { "nodeid": 87, "leaf": -0.301769078 }, 
              { "nodeid": 88, "leaf": -0.14705047 }
            ]}, 
            { "nodeid": 44, "depth": 5, "split": "f25", "split_condition": 31.5, "yes": 89, "no": 90, "missing": 89 , "children": [
              { "nodeid": 89, "leaf": 0.0174082294 }, 
              { "nodeid": 90, "leaf": -1.41154349 }
            ]}
          ]}, 
          { "nodeid": 22, "depth": 4, "split": "f9", "split_condition": 1.89030349, "yes": 45, "no": 46, "missing": 45 , "children": [
            { "nodeid": 45, "depth": 5, "split": "f39", "split_condition": 14.5, "yes": 91, "no": 92, "missing": 91 , "children": [
              { "nodeid": 91, "leaf": -0.703671336 }, 
              { "nodeid": 92, "leaf": -0.235210985 }
            ]}, 
            { "nodeid": 46, "depth": 5, "split": "f1", "split_condition": 1.5, "yes": 93, "no": 94, "missing": 93 , "children": [
              { "nodeid": 93, "leaf": -4.04686832 }, 
              { "nodeid": 94, "leaf": -1.63186574 }
            ]}
          ]}
        ]}
      ]}
    ]}, 
    { "nodeid": 2, "depth": 1, "split": "f75", "split_condition": -0.02276849, "yes": 5, "no": 6, "missing": 5 , "children": [
      { "nodeid": 5, "depth": 2, "split": "f56", "split_condition": 0.578313589, "yes": 11, "no": 12, "missing": 11 , "children": [
        { "nodeid": 11, "depth": 3, "split": "f57", "split_condition": 1.00254607, "yes": 23, "no": 24, "missing": 23 , "children": [
          { "nodeid": 23, "depth": 4, "split": "f53", "split_condition": 1.59761906, "yes": 47, "no": 48, "missing": 47 , "children": [
            { "nodeid": 47, "depth": 5, "split": "f60", "split_condition": 0.35504204, "yes": 95, "no": 96, "missing": 95 , "children": [
              { "nodeid": 95, "leaf": -0.169289529 }, 
              { "nodeid": 96, "leaf": -0.0984761044 }
            ]}, 
            { "nodeid": 48, "depth": 5, "split": "f69", "split_condition": -0.658777356, "yes": 97, "no": 98, "missing": 97 , "children": [
              { "nodeid": 97, "leaf": 0.105137847 }, 
              { "nodeid": 98, "leaf": -0.0476942472 }
            ]}
          ]}, 
          { "nodeid": 24, "depth": 4, "split": "f56", "split_condition": 0.256957382, "yes": 49, "no": 50, "missing": 49 , "children": [
            { "nodeid": 49, "depth": 5, "split": "f104", "split_condition": 22.3879433, "yes": 99, "no": 100, "missing": 99 , "children": [
              { "nodeid": 99, "leaf": -0.101063512 }, 
              { "nodeid": 100, "leaf": -0.37415117 }
            ]}, 
            { "nodeid": 50, "depth": 5, "split": "f57", "split_condition": 1.57119322, "yes": 101, "no": 102, "missing": 101 , "children": [
              { "nodeid": 101, "leaf": -0.0698680058 }, 
              { "nodeid": 102, "leaf": -0.0328420512 }
            ]}
          ]}
        ]}, 
        { "nodeid": 12, "depth": 3, "split": "f58", "split_condition": 16.5, "yes": 25, "no": 26, "missing": 25 , "children": [
          { "nodeid": 25, "depth": 4, "split": "f63", "split_condition": 2.76801467, "yes": 51, "no": 52, "missing": 51 , "children": [
            { "nodeid": 51, "depth": 5, "split": "f0", "split_condition": 67.5, "yes": 103, "no": 104, "missing": 103 , "children": [
              { "nodeid": 103, "leaf": -0.042250827 }, 
              { "nodeid": 104, "leaf": -0.00252894126 }
            ]}, 
            { "nodeid": 52, "depth": 5, "split": "f67", "split_condition": 0.581390619, "yes": 105, "no": 106, "missing": 105 , "children": [
              { "nodeid": 105, "leaf": -0.0724447593 }, 
              { "nodeid": 106, "leaf": -0.253091812 }
            ]}
          ]}, 
          { "nodeid": 26, "depth": 4, "split": "f19", "split_condition": -0.622749388, "yes": 53, "no": 54, "missing": 53 , "children": [
            { "nodeid": 53, "depth": 5, "split": "f0", "split_condition": 71.5, "yes": 107, "no": 108, "missing": 107 , "children": [
              { "nodeid": 107, "leaf": -0.115551017 }, 
              { "nodeid": 108, "leaf": -0.0450702421 }
            ]}, 
            { "nodeid": 54, "depth": 5, "split": "f67", "split_condition": -0.571803331, "yes": 109, "no": 110, "missing": 109 , "children": [
              { "nodeid": 109, "leaf": -0.0277048759 }, 
              { "nodeid": 110, "leaf": -0.076153405 }
            ]}
          ]}
        ]}
      ]}, 
      { "nodeid": 6, "depth": 2, "split": "f1", "split_condition": 4.5, "yes": 13, "no": 14, "missing": 13 , "children": [
        { "nodeid": 13, "depth": 3, "split": "f13", "split_condition": 0.5, "yes": 27, "no": 28, "missing": 27 , "children": [
          { "nodeid": 27, "depth": 4, "split": "f133", "split_condition": 6.75392818, "yes": 55, "no": 56, "missing": 55 , "children": [
            { "nodeid": 55, "depth": 5, "split": "f115", "split_condition": -0.501791537, "yes": 111, "no": 112, "missing": 111 , "children": [
              { "nodeid": 111, "leaf": 0.0998495296 }, 
              { "nodeid": 112, "leaf": -0.0239185486 }
            ]}, 
            { "nodeid": 56, "depth": 5, "split": "f104", "split_condition": 1.91304219, "yes": 113, "no": 114, "missing": 113 , "children": [
              { "nodeid": 113, "leaf": -0.403478652 }, 
              { "nodeid": 114, "leaf": 0.454454392 }
            ]}
          ]}, 
          { "nodeid": 28, "depth": 4, "split": "f9", "split_condition": -0.443201542, "yes": 57, "no": 58, "missing": 57 , "children": [
            { "nodeid": 57, "depth": 5, "split": "f30", "split_condition": 3.56621432, "yes": 115, "no": 116, "missing": 115 , "children": [
              { "nodeid": 115, "leaf": 0.239664167 }, 
              { "nodeid": 116, "leaf": -0.147588089 }
            ]}, 
            { "nodeid": 58, "depth": 5, "split": "f21", "split_condition": 1.51819611, "yes": 117, "no": 118, "missing": 117 , "children": [
              { "nodeid": 117, "leaf": -0.0880685672 }, 
              { "nodeid": 118, "leaf": 0.147441074 }
            ]}
          ]}
        ]}, 
        { "nodeid": 14, "depth": 3, "split": "f104", "split_condition": 2.95076537, "yes": 29, "no": 30, "missing": 29 , "children": [
          { "nodeid": 29, "depth": 4, "split": "f14", "split_condition": 11, "yes": 59, "no": 60, "missing": 59 , "children": [
            { "nodeid": 59, "depth": 5, "split": "f44", "split_condition": 19.5, "yes": 119, "no": 120, "missing": 119 , "children": [
              { "nodeid": 119, "leaf": 0.0498283841 }, 
              { "nodeid": 120, "leaf": 0.864432812 }
            ]}, 
            { "nodeid": 60, "depth": 5, "split": "f25", "split_condition": 4.5, "yes": 121, "no": 122, "missing": 121 , "children": [
              { "nodeid": 121, "leaf": -0 }, 
              { "nodeid": 122, "leaf": 1.13592196 }
            ]}
          ]}, 
          { "nodeid": 30, "depth": 4, "split": "f38", "split_condition": 602.888123, "yes": 61, "no": 62, "missing": 61 , "children": [
            { "nodeid": 61, "depth": 5, "split": "f16", "split_condition": 1.35626364, "yes": 123, "no": 124, "missing": 123 , "children": [
              { "nodeid": 123, "leaf": -0.183694482 }, 
              { "nodeid": 124, "leaf": -0.0194974076 }
            ]}, 
            { "nodeid": 62, "depth": 5, "split": "f9", "split_condition": -0.168759674, "yes": 125, "no": 126, "missing": 125 , "children": [
              { "nodeid": 125, "leaf": -0.149224147 }, 
              { "nodeid": 126, "leaf": 0.477226466 }
            ]}
          ]}
        ]}
      ]}
    ]}
  ]},
  { "nodeid": 0, "depth": 0, "split": "f58", "split_condition": 2.5, "yes": 1, "no": 2, "missing": 1 , "children": [
    { "nodeid": 1, "depth": 1, "split": "f142", "split_condition": 40.5, "yes": 3, "no": 4, "missing": 3 , "children": [
      { "nodeid": 3, "depth": 2, "split": "f120", "split_condition": -49.5283279, "yes": 7, "no": 8, "missing": 7 , "children": [
        { "nodeid": 7, "depth": 3, "split": "f46", "split_condition": 17.5, "yes": 15, "no": 16, "missing": 15 , "children": [
          { "nodeid": 15, "depth": 4, "split": "f140", "split_condition": 19.5, "yes": 31, "no": 32, "missing": 31 , "children": [
            { "nodeid": 31, "depth": 5, "split": "f8", "split_condition": 18.2753239, "yes": 63, "no": 64, "missing": 63 , "children": [
              { "nodeid": 63, "leaf": -0.151955247 }, 
              { "nodeid": 64, "leaf": 0.29685694 }
            ]}, 
            { "nodeid": 32, "depth": 5, "split": "f0", "split_condition": 71.5, "yes": 65, "no": 66, "missing": 65 , "children": [
              { "nodeid": 65, "leaf": -0.548655808 }, 
              { "nodeid": 66, "leaf": -2.43315768 }
            ]}
          ]}, 
          { "nodeid": 16, "depth": 4, "split": "f70", "split_condition": 0.00018435462, "yes": 33, "no": 34, "missing": 33 , "children": [
            { "nodeid": 33, "depth": 5, "split": "f69", "split_condition": -0.733707011, "yes": 67, "no": 68, "missing": 67 , "children": [
              { "nodeid": 67, "leaf": -0.432948172 }, 
              { "nodeid": 68, "leaf": 0.085742034 }
            ]}, 
            { "nodeid": 34, "depth": 5, "split": "f53", "split_condition": 0.021507863, "yes": 69, "no": 70, "missing": 69 , "children": [
              { "nodeid": 69, "leaf": -0.0131657599 }, 
              { "nodeid": 70, "leaf": -0.0809223205 }
            ]}
          ]}
        ]}, 
        { "nodeid": 8, "depth": 3, "split": "f121", "split_condition": 5.5, "yes": 17, "no": 18, "missing": 17 , "children": [
          { "nodeid": 17, "depth": 4, "split": "f69", "split_condition": -0.130535305, "yes": 35, "no": 36, "missing": 35 , "children": [
            { "nodeid": 35, "depth": 5, "split": "f24", "split_condition": -15.1241016, "yes": 71, "no": 72, "missing": 71 , "children": [
              { "nodeid": 71, "leaf": -0.0803661793 }, 
              { "nodeid": 72, "leaf": 0.00440024771 }
            ]}, 
            { "nodeid": 36, "depth": 5, "split": "f20", "split_condition": -0.626770854, "yes": 73, "no": 74, "missing": 73 , "children": [
              { "nodeid": 73, "leaf": -0.116682559 }, 
              { "nodeid": 74, "leaf": 0.0168084763 }
            ]}
          ]}, 
          { "nodeid": 18, "depth": 4, "split": "f100", "split_condition": 6.5, "yes": 37, "no": 38, "missing": 37 , "children": [
            { "nodeid": 37, "depth": 5, "split": "f85", "split_condition": 3.23847151, "yes": 75, "no": 76, "missing": 75 , "children": [
              { "nodeid": 75, "leaf": 0.07557524 }, 
              { "nodeid": 76, "leaf": -0.073826775 }
            ]}, 
            { "nodeid": 38, "depth": 5, "split": "f46", "split_condition": 23.5, "yes": 77, "no": 78, "missing": 77 , "children": [
              { "nodeid": 77, "leaf": -0.00654324563 }, 
              { "nodeid": 78, "leaf": 0.0576896034 }
            ]}
          ]}
        ]}
      ]}, 
      { "nodeid": 4, "depth": 2, "split": "f135", "split_condition": 69.5, "yes": 9, "no": 10, "missing": 9 , "children": [
        { "nodeid": 9, "depth": 3, "split": "f143", "split_condition": 5.5, "yes": 19, "no": 20, "missing": 19 , "children": [
          { "nodeid": 19, "depth": 4, "split": "f37", "split_condition": 4.74796295, "yes": 39, "no": 40, "missing": 39 , "children": [
            { "nodeid": 39, "depth": 5, "split": "f57", "split_condition": 0.304290324, "yes": 79, "no": 80, "missing": 79 , "children": [
              { "nodeid": 79, "leaf": 1.18361545 }, 
              { "nodeid": 80, "leaf": 0.502959788 }
            ]}, 
            { "nodeid": 40, "depth": 5, "split": "f142", "split_condition": 44.5, "yes": 81, "no": 82, "missing": 81 , "children": [
              { "nodeid": 81, "leaf": -0.150964469 }, 
              { "nodeid": 82, "leaf": 0.64201802 }
            ]}
          ]}, 
          { "nodeid": 20, "depth": 4, "split": "f16", "split_condition": 3.74796534, "yes": 41, "no": 42, "missing": 41 , "children": [
            { "nodeid": 41, "depth": 5, "split": "f72", "split_condition": -3.65795636, "yes": 83, "no": 84, "missing": 83 , "children": [
              { "nodeid": 83, "leaf": 0.465194196 }, 
              { "nodeid": 84, "leaf": 0.134428144 }
            ]}, 
            { "nodeid": 42, "depth": 5, "split": "f5", "split_condition": -4.19785213, "yes": 85, "no": 86, "missing": 85 , "children": [
              { "nodeid": 85, "leaf": 0.0609676354 }, 
              { "nodeid": 86, "leaf": -0.763928592 }
            ]}
          ]}
        ]}, 
        { "nodeid": 10, "depth": 3, "split": "f69", "split_condition": -0.731670916, "yes": 21, "no": 22, "missing": 21 , "children": [
          { "nodeid": 21, "depth": 4, "split": "f38", "split_condition": 595.96698, "yes": 43, "no": 44, "missing": 43 , "children": [
            { "nodeid": 43, "depth": 5, "split": "f0", "split_condition": 67.5, "yes": 87, "no": 88, "missing": 87 , "children": [
              { "nodeid": 87, "leaf": 0.409365445 }, 
              { "nodeid": 88, "leaf": 1.291067 }
            ]}, 
            { "nodeid": 44, "depth": 5, "split": "f75", "split_condition": 10.2689018, "yes": 89, "no": 90, "missing": 89 , "children": [
              { "nodeid": 89, "leaf": -0.142309889 }, 
              { "nodeid": 90, "leaf": 1.09271324 }
            ]}
          ]}, 
          { "nodeid": 22, "depth": 4, "split": "f135", "split_condition": 171.5, "yes": 45, "no": 46, "missing": 45 , "children": [
            { "nodeid": 45, "depth": 5, "split": "f37", "split_condition": 4.95241833, "yes": 91, "no": 92, "missing": 91 , "children": [
              { "nodeid": 91, "leaf": 0.106360056 }, 
              { "nodeid": 92, "leaf": -0 }
            ]}, 
            { "nodeid": 46, "depth": 5, "split": "f142", "split_condition": 98.5, "yes": 93, "no": 94, "missing": 93 , "children": [
              { "nodeid": 93, "leaf": -0.0308707319 }, 
              { "nodeid": 94, "leaf": 0.127059311 }
            ]}
          ]}
        ]}
      ]}
    ]}, 
    { "nodeid": 2, "depth": 1, "split": "f100", "split_condition": 5.5, "yes": 5, "no": 6, "missing": 5 , "children": [
      { "nodeid": 5, "depth": 2, "split": "f93", "split_condition": 7.5, "yes": 11, "no": 12, "missing": 11 , "children": [
        { "nodeid": 11, "depth": 3, "split": "f46", "split_condition": 24.5, "yes": 23, "no": 24, "missing": 23 , "children": [
          { "nodeid": 23, "depth": 4, "split": "f56", "split_condition": 0.486154109, "yes": 47, "no": 48, "missing": 47 , "children": [
            { "nodeid": 47, "depth": 5, "split": "f25", "split_condition": 19.5, "yes": 95, "no": 96, "missing": 95 , "children": [
              { "nodeid": 95, "leaf": -0.00885466393 }, 
              { "nodeid": 96, "leaf": -2.01581812 }
            ]}, 
            { "nodeid": 48, "depth": 5, "split": "f101", "split_condition": -1.07634044, "yes": 97, "no": 98, "missing": 97 , "children": [
              { "nodeid": 97, "leaf": 0.0887292102 }, 
              { "nodeid": 98, "leaf": 0.0257273875 }
            ]}
          ]}, 
          { "nodeid": 24, "depth": 4, "split": "f71", "split_condition": -1.39788985, "yes": 49, "no": 50, "missing": 49 , "children": [
            { "nodeid": 49, "leaf": 1.36021137 }, 
            { "nodeid": 50, "depth": 5, "split": "f58", "split_condition": 12.5, "yes": 99, "no": 100, "missing": 99 , "children": [
              { "nodeid": 99, "leaf": 0.193088397 }, 
              { "nodeid": 100, "leaf": -0.0444577411 }
            ]}
          ]}
        ]}, 
        { "nodeid": 12, "depth": 3, "split": "f58", "split_condition": 22.5, "yes": 25, "no": 26, "missing": 25 , "children": [
          { "nodeid": 25, "depth": 4, "split": "f114", "split_condition": 120.5, "yes": 51, "no": 52, "missing": 51 , "children": [
            { "nodeid": 51, "depth": 5, "split": "f56", "split_condition": 0.900549412, "yes": 101, "no": 102, "missing": 101 , "children": [
              { "nodeid": 101, "leaf": -0.0157756209 }, 
              { "nodeid": 102, "leaf": 0.0829164609 }
            ]}, 
            { "nodeid": 52, "depth": 5, "split": "f72", "split_condition": -20.6623535, "yes": 103, "no": 104, "missing": 103 , "children": [
              { "nodeid": 103, "leaf": -0.121865205 }, 
              { "nodeid": 104, "leaf": -0.894268811 }
            ]}
          ]}, 
          { "nodeid": 26, "depth": 4, "split": "f57", "split_condition": -3.94099236, "yes": 53, "no": 54, "missing": 53 , "children": [
            { "nodeid": 53, "depth": 5, "split": "f2", "split_condition": 1.5, "yes": 105, "no": 106, "missing": 105 , "children": [
              { "nodeid": 105, "leaf": -1.62584114 }, 
              { "nodeid": 106, "leaf": -0.168249831 }
            ]}, 
            { "nodeid": 54, "depth": 5, "split": "f41", "split_condition": 1.5, "yes": 107, "no": 108, "missing": 107 , "children": [
              { "nodeid": 107, "leaf": -0.0263476875 }, 
              { "nodeid": 108, "leaf": -0.0760639384 }
            ]}
          ]}
        ]}
      ]}, 
      { "nodeid": 6, "depth": 2, "split": "f46", "split_condition": 24.5, "yes": 13, "no": 14, "missing": 13 , "children": [
        { "nodeid": 13, "depth": 3, "split": "f60", "split_condition": 0.110101014, "yes": 27, "no": 28, "missing": 27 , "children": [
          { "nodeid": 27, "depth": 4, "split": "f69", "split_condition": -0.574132979, "yes": 55, "no": 56, "missing": 55 , "children": [
            { "nodeid": 55, "depth": 5, "split": "f19", "split_condition": -0.671624482, "yes": 109, "no": 110, "missing": 109 , "children": [
              { "nodeid": 109, "leaf": -0.0766681284 }, 
              { "nodeid": 110, "leaf": -0.00165606965 }
            ]}, 
            { "nodeid": 56, "depth": 5, "split": "f0", "split_condition": 68.5, "yes": 111, "no": 112, "missing": 111 , "children": [
              { "nodeid": 111, "leaf": -0.156787679 }, 
              { "nodeid": 112, "leaf": -0.0727911144 }
            ]}
          ]}, 
          { "nodeid": 28, "depth": 4, "split": "f63", "split_condition": 3.62296724, "yes": 57, "no": 58, "missing": 57 , "children": [
            { "nodeid": 57, "depth": 5, "split": "f59", "split_condition": 1.94723845, "yes": 113, "no": 114, "missing": 113 , "children": [
              { "nodeid": 113, "leaf": 0.00433296198 }, 
              { "nodeid": 114, "leaf": -0.0465931781 }
            ]}, 
            { "nodeid": 58, "depth": 5, "split": "f69", "split_condition": 1.25225687, "yes": 115, "no": 116, "missing": 115 , "children": [
              { "nodeid": 115, "leaf": -0.0994077474 }, 
              { "nodeid": 116, "leaf": -0.187262222 }
            ]}
          ]}
        ]}, 
        { "nodeid": 14, "depth": 3, "split": "f58", "split_condition": 12.5, "yes": 29, "no": 30, "missing": 29 , "children": [
          { "nodeid": 29, "depth": 4, "split": "f56", "split_condition": 0.815523624, "yes": 59, "no": 60, "missing": 59 , "children": [
            { "nodeid": 59, "depth": 5, "split": "f55", "split_condition": 1.3255167, "yes": 117, "no": 118, "missing": 117 , "children": [
              { "nodeid": 117, "leaf": -0.0651451275 }, 
              { "nodeid": 118, "leaf": -0.0124835549 }
            ]}, 
            { "nodeid": 60, "depth": 5, "split": "f60", "split_condition": 3.79166651, "yes": 119, "no": 120, "missing": 119 , "children": [
              { "nodeid": 119, "leaf": 0.0488286652 }, 
              { "nodeid": 120, "leaf": -0.245477632 }
            ]}
          ]}, 
          { "nodeid": 30, "depth": 4, "split": "f47", "split_condition": 5.5, "yes": 61, "no": 62, "missing": 61 , "children": [
            { "nodeid": 61, "depth": 5, "split": "f0", "split_condition": 68.5, "yes": 121, "no": 122, "missing": 121 , "children": [
              { "nodeid": 121, "leaf": -0.101359099 }, 
              { "nodeid": 122, "leaf": -0.040547356 }
            ]}, 
            { "nodeid": 62, "depth": 5, "split": "f69", "split_condition": 4.3993721, "yes": 123, "no": 124, "missing": 123 , "children": [
              { "nodeid": 123, "leaf": -0.0329317264 }, 
              { "nodeid": 124, "leaf": -0.112482533 }
            ]}
          ]}
        ]}
      ]}
    ]}
  ]},
  { "nodeid": 0, "depth": 0, "split": "f69", "split_condition": -0.371312618, "yes": 1, "no": 2, "missing": 1 , "children": [
    { "nodeid": 1, "depth": 1, "split": "f118", "split_condition": 0.0259664897, "yes": 3, "no": 4, "missing": 3 , "children": [
      { "nodeid": 3, "depth": 2, "split": "f69", "split_condition": -0.702121258, "yes": 7, "no": 8, "missing": 7 , "children": [
        { "nodeid": 7, "depth": 3, "split": "f71", "split_condition": 4.036057, "yes": 15, "no": 16, "missing": 15 , "children": [
          { "nodeid": 15, "depth": 4, "split": "f67", "split_condition": -0.73904705, "yes": 31, "no": 32, "missing": 31 , "children": [
            { "nodeid": 31, "depth": 5, "split": "f19", "split_condition": -0.661150217, "yes": 61, "no": 62, "missing": 61 , "children": [
              { "nodeid": 61, "leaf": 0.101962447 }, 
              { "nodeid": 62, "leaf": 0.488479197 }
            ]}, 
            { "nodeid": 32, "depth": 5, "split": "f140", "split_condition": 4.5, "yes": 63, "no": 64, "missing": 63 , "children": [
              { "nodeid": 63, "leaf": -0.0518012419 }, 
              { "nodeid": 64, "leaf": 0.0418890566 }
            ]}
          ]}, 
          { "nodeid": 16, "leaf": -2.47508526 }
        ]}, 
        { "nodeid": 8, "depth": 3, "split": "f19", "split_condition": -0.704574168, "yes": 17, "no": 18, "missing": 17 , "children": [
          { "nodeid": 17, "depth": 4, "split": "f53", "split_condition": 0.020842379, "yes": 33, "no": 34, "missing": 33 , "children": [
            { "nodeid": 33, "depth": 5, "split": "f37", "split_condition": 1.59713101, "yes": 65, "no": 66, "missing": 65 , "children": [
              { "nodeid": 65, "leaf": -0.0192164127 }, 
              { "nodeid": 66, "leaf": 0.122862726 }
            ]}, 
            { "nodeid": 34, "depth": 5, "split": "f0", "split_condition": 25.5, "yes": 67, "no": 68, "missing": 67 , "children": [
              { "nodeid": 67, "leaf": -0.279875547 }, 
              { "nodeid": 68, "leaf": -0.0569740348 }
            ]}
          ]}, 
          { "nodeid": 18, "depth": 4, "split": "f67", "split_condition": -0.711364985, "yes": 35, "no": 36, "missing": 35 , "children": [
            { "nodeid": 35, "depth": 5, "split": "f72", "split_condition": -2.15003848, "yes": 69, "no": 70, "missing": 69 , "children": [
              { "nodeid": 69, "leaf": 0.0252903569 }, 
              { "nodeid": 70, "leaf": 0.202709511 }
            ]}, 
            { "nodeid": 36, "depth": 5, "split": "f0", "split_condition": 67.5, "yes": 71, "no": 72, "missing": 71 , "children": [
              { "nodeid": 71, "leaf": -0.026720304 }, 
              { "nodeid": 72, "leaf": 0.00527903531 }
            ]}
          ]}
        ]}
      ]}, 
      { "nodeid": 4, "depth": 2, "split": "f105", "split_condition": 0.771503568, "yes": 9, "no": 10, "missing": 9 , "children": [
        { "nodeid": 9, "depth": 3, "split": "f41", "split_condition": 1.5, "yes": 19, "no": 20, "missing": 19 , "children": [
          { "nodeid": 19, "depth": 4, "split": "f12", "split_condition": 3.02631569, "yes": 37, "no": 38, "missing": 37 , "children": [
            { "nodeid": 37, "depth": 5, "split": "f111", "split_condition": 6.96831799, "yes": 73, "no": 74, "missing": 73 , "children": [
              { "nodeid": 73, "leaf": 0.0565781854 }, 
              { "nodeid": 74, "leaf": -0.0953306332 }
            ]}, 
            { "nodeid": 38, "depth": 5, "split": "f126", "split_condition": 2.36928129, "yes": 75, "no": 76, "missing": 75 , "children": [
              { "nodeid": 75, "leaf": 0.0104050227 }, 
              { "nodeid": 76, "leaf": 0.249480769 }
            ]}
          ]}, 
          { "nodeid": 20, "depth": 4, "split": "f101", "split_condition": -7.50780773, "yes": 39, "no": 40, "missing": 39 , "children": [
            { "nodeid": 39, "depth": 5, "split": "f9", "split_condition": -0.00413499493, "yes": 77, "no": 78, "missing": 77 , "children": [
              { "nodeid": 77, "leaf": 0.638070703 }, 
              { "nodeid": 78, "leaf": 0.0971815959 }
            ]}, 
            { "nodeid": 40, "depth": 5, "split": "f13", "split_condition": -0.5, "yes": 79, "no": 80, "missing": 79 , "children": [
              { "nodeid": 79, "leaf": 0.0410614088 }, 
              { "nodeid": 80, "leaf": -0.00294286432 }
            ]}
          ]}
        ]}, 
        { "nodeid": 10, "depth": 3, "split": "f67", "split_condition": -0.745780826, "yes": 21, "no": 22, "missing": 21 , "children": [
          { "nodeid": 21, "depth": 4, "split": "f47", "split_condition": 4.5, "yes": 41, "no": 42, "missing": 41 , "children": [
            { "nodeid": 41, "depth": 5, "split": "f7", "split_condition": -4.5, "yes": 81, "no": 82, "missing": 81 , "children": [
              { "nodeid": 81, "leaf": 0.0890838206 }, 
              { "nodeid": 82, "leaf": 2.12909436 }
            ]}, 
            { "nodeid": 42, "leaf": -0.717945397 }
          ]}, 
          { "nodeid": 22, "depth": 4, "split": "f20", "split_condition": -0.740641713, "yes": 43, "no": 44, "missing": 43 , "children": [
            { "nodeid": 43, "depth": 5, "split": "f118", "split_condition": 0.0308187269, "yes": 83, "no": 84, "missing": 83 , "children": [
              { "nodeid": 83, "leaf": 0.226645887 }, 
              { "nodeid": 84, "leaf": 0.0057954737 }
            ]}, 
            { "nodeid": 44, "depth": 5, "split": "f105", "split_condition": 2.47212362, "yes": 85, "no": 86, "missing": 85 , "children": [
              { "nodeid": 85, "leaf": 0.115287296 }, 
              { "nodeid": 86, "leaf": 0.403680474 }
            ]}
          ]}
        ]}
      ]}
    ]}, 
    { "nodeid": 2, "depth": 1, "split": "f19", "split_condition": -0.466670513, "yes": 5, "no": 6, "missing": 5 , "children": [
      { "nodeid": 5, "depth": 2, "split": "f53", "split_condition": 0.624691248, "yes": 11, "no": 12, "missing": 11 , "children": [
        { "nodeid": 11, "depth": 3, "split": "f103", "split_condition": 0.5, "yes": 23, "no": 24, "missing": 23 , "children": [
          { "nodeid": 23, "depth": 4, "split": "f63", "split_condition": 0.0645833313, "yes": 45, "no": 46, "missing": 45 , "children": [
            { "nodeid": 45, "depth": 5, "split": "f142", "split_condition": 28.5, "yes": 87, "no": 88, "missing": 87 , "children": [
              { "nodeid": 87, "leaf": -0.0969728455 }, 
              { "nodeid": 88, "leaf": 0.0622818917 }
            ]}, 
            { "nodeid": 46, "depth": 5, "split": "f1", "split_condition": 4.5, "yes": 89, "no": 90, "missing": 89 , "children": [
              { "nodeid": 89, "leaf": 0.0688071325 }, 
              { "nodeid": 90, "leaf": -0.0607100427 }
            ]}
          ]}, 
          { "nodeid": 24, "depth": 4, "split": "f19", "split_condition": -0.685957551, "yes": 47, "no": 48, "missing": 47 , "children": [
            { "nodeid": 47, "depth": 5, "split": "f57", "split_condition": 0.538383961, "yes": 91, "no": 92, "missing": 91 , "children": [
              { "nodeid": 91, "leaf": -0.314699739 }, 
              { "nodeid": 92, "leaf": -0.0845419541 }
            ]}, 
            { "nodeid": 48, "depth": 5, "split": "f70", "split_condition": 0.375775248, "yes": 93, "no": 94, "missing": 93 , "children": [
              { "nodeid": 93, "leaf": -0.0243904646 }, 
              { "nodeid": 94, "leaf": -0.0861150324 }
            ]}
          ]}
        ]}, 
        { "nodeid": 12, "depth": 3, "split": "f67", "split_condition": -0.455356419, "yes": 25, "no": 26, "missing": 25 , "children": [
          { "nodeid": 25, "depth": 4, "split": "f19", "split_condition": -0.650512695, "yes": 49, "no": 50, "missing": 49 , "children": [
            { "nodeid": 49, "depth": 5, "split": "f56", "split_condition": 0.474864215, "yes": 95, "no": 96, "missing": 95 , "children": [
              { "nodeid": 95, "leaf": -0.177067325 }, 
              { "nodeid": 96, "leaf": -0.0958378538 }
            ]}, 
            { "nodeid": 50, "depth": 5, "split": "f56", "split_condition": 0.774225473, "yes": 97, "no": 98, "missing": 97 , "children": [
              { "nodeid": 97, "leaf": -0.0640491843 }, 
              { "nodeid": 98, "leaf": -0.0129873827 }
            ]}
          ]}, 
          { "nodeid": 26, "depth": 4, "split": "f56", "split_condition": 0.672676206, "yes": 51, "no": 52, "missing": 51 , "children": [
            { "nodeid": 51, "depth": 5, "split": "f57", "split_condition": 1.82738447, "yes": 99, "no": 100, "missing": 99 , "children": [
              { "nodeid": 99, "leaf": -0.171077505 }, 
              { "nodeid": 100, "leaf": -0.526665866 }
            ]}, 
            { "nodeid": 52, "depth": 5, "split": "f75", "split_condition": 0.160657242, "yes": 101, "no": 102, "missing": 101 , "children": [
              { "nodeid": 101, "leaf": -0.0996512249 }, 
              { "nodeid": 102, "leaf": 0.523658633 }
            ]}
          ]}
        ]}
      ]}, 
      { "nodeid": 6, "depth": 2, "split": "f67", "split_condition": 0.944748759, "yes": 13, "no": 14, "missing": 13 , "children": [
        { "nodeid": 13, "depth": 3, "split": "f19", "split_condition": -0.126441479, "yes": 27, "no": 28, "missing": 27 , "children": [
          { "nodeid": 27, "depth": 4, "split": "f67", "split_condition": -0.279502094, "yes": 53, "no": 54, "missing": 53 , "children": [
            { "nodeid": 53, "depth": 5, "split": "f3", "split_condition": 0.5, "yes": 103, "no": 104, "missing": 103 , "children": [
              { "nodeid": 103, "leaf": 0.0124062737 }, 
              { "nodeid": 104, "leaf": -0.0218495987 }
            ]}, 
            { "nodeid": 54, "depth": 5, "split": "f53", "split_condition": 0.0289915968, "yes": 105, "no": 106, "missing": 105 , "children": [
              { "nodeid": 105, "leaf": 0.0458823033 }, 
              { "nodeid": 106, "leaf": -0.0624056906 }
            ]}
          ]}, 
          { "nodeid": 28, "depth": 4, "split": "f69", "split_condition": 0.171054304, "yes": 55, "no": 56, "missing": 55 , "children": [
            { "nodeid": 55, "depth": 5, "split": "f134", "split_condition": -0.695435643, "yes": 107, "no": 108, "missing": 107 , "children": [
              { "nodeid": 107, "leaf": -0.0907561779 }, 
              { "nodeid": 108, "leaf": 0.0871378779 }
            ]}, 
            { "nodeid": 56, "depth": 5, "split": "f17", "split_condition": 33.5, "yes": 109, "no": 110, "missing": 109 , "children": [
              { "nodeid": 109, "leaf": -0.0289315153 }, 
              { "nodeid": 110, "leaf": 0.0330721401 }
            ]}
          ]}
        ]}, 
        { "nodeid": 14, "depth": 3, "split": "f24", "split_condition": 7.12443733, "yes": 29, "no": 30, "missing": 29 , "children": [
          { "nodeid": 29, "depth": 4, "split": "f117", "split_condition": 11.3766098, "yes": 57, "no": 58, "missing": 57 , "children": [
            { "nodeid": 57, "depth": 5, "split": "f105", "split_condition": 2.23428535, "yes": 111, "no": 112, "missing": 111 , "children": [
              { "nodeid": 111, "leaf": -0.106255502 }, 
              { "nodeid": 112, "leaf": -1.18045831 }
            ]}, 
            { "nodeid": 58, "depth": 5, "split": "f108", "split_condition": 1.16145825, "yes": 113, "no": 114, "missing": 113 , "children": [
              { "nodeid": 113, "leaf": 0.102019727 }, 
              { "nodeid": 114, "leaf": -0.511928558 }
            ]}
          ]}, 
          { "nodeid": 30, "depth": 4, "split": "f72", "split_condition": 122.712311, "yes": 59, "no": 60, "missing": 59 , "children": [
            { "nodeid": 59, "depth": 5, "split": "f67", "split_condition": 0.94751358, "yes": 115, "no": 116, "missing": 115 , "children": [
              { "nodeid": 115, "leaf": -1.7552439 }, 
              { "nodeid": 116, "leaf": -0.0254485402 }
            ]}, 
            { "nodeid": 60, "depth": 5, "split": "f122", "split_condition": 0.678155661, "yes": 117, "no": 118, "missing": 117 , "children": [
              { "nodeid": 117, "leaf": 0.0908917487 }, 
              { "nodeid": 118, "leaf": 1.13069439 }
            ]}
          ]}
        ]}
      ]}
    ]}
  ]},
  { "nodeid": 0, "depth": 0, "split": "f69", "split_condition": -0.583486974, "yes": 1, "no": 2, "missing": 1 , "children": [
    { "nodeid": 1, "depth": 1, "split": "f56", "split_condition": 0.492437482, "yes": 3, "no": 4, "missing": 3 , "children": [
      { "nodeid": 3, "depth": 2, "split": "f58", "split_condition": 1.5, "yes": 7, "no": 8, "missing": 7 , "children": [
        { "nodeid": 7, "depth": 3, "split": "f12", "split_condition": 0.176944971, "yes": 15, "no": 16, "missing": 15 , "children": [
          { "nodeid": 15, "depth": 4, "split": "f22", "split_condition": 0.000137946583, "yes": 31, "no": 32, "missing": 31 , "children": [
            { "nodeid": 31, "depth": 5, "split": "f98", "split_condition": 2.5, "yes": 63, "no": 64, "missing": 63 , "children": [
              { "nodeid": 63, "leaf": -0.0209851973 }, 
              { "nodeid": 64, "leaf": -0.254114896 }
            ]}, 
            { "nodeid": 32, "depth": 5, "split": "f7", "split_condition": -5.5, "yes": 65, "no": 66, "missing": 65 , "children": [
              { "nodeid": 65, "leaf": 0.562300444 }, 
              { "nodeid": 66, "leaf": 0.0511629283 }
            ]}
          ]}, 
          { "nodeid": 16, "depth": 4, "split": "f25", "split_condition": 22.5, "yes": 33, "no": 34, "missing": 33 , "children": [
            { "nodeid": 33, "depth": 5, "split": "f7", "split_condition": -5.5, "yes": 67, "no": 68, "missing": 67 , "children": [
              { "nodeid": 67, "leaf": -0.56480521 }, 
              { "nodeid": 68, "leaf": -0.00328516727 }
            ]}, 
            { "nodeid": 34, "depth": 5, "split": "f124", "split_condition": 9.53024197, "yes": 69, "no": 70, "missing": 69 , "children": [
              { "nodeid": 69, "leaf": 0.646716356 }, 
              { "nodeid": 70, "leaf": -0.218065977 }
            ]}
          ]}
        ]}, 
        { "nodeid": 8, "depth": 3, "split": "f53", "split_condition": 1.59545457, "yes": 17, "no": 18, "missing": 17 , "children": [
          { "nodeid": 17, "depth": 4, "split": "f0", "split_condition": 66.5, "yes": 35, "no": 36, "missing": 35 , "children": [
            { "nodeid": 35, "depth": 5, "split": "f56", "split_condition": 0.131473184, "yes": 71, "no": 72, "missing": 71 , "children": [
              { "nodeid": 71, "leaf": -0.163296968 }, 
              { "nodeid": 72, "leaf": -0.0511325486 }
            ]}, 
            { "nodeid": 36, "depth": 5, "split": "f45", "split_condition": 9.5, "yes": 73, "no": 74, "missing": 73 , "children": [
              { "nodeid": 73, "leaf": -0.0428084023 }, 
              { "nodeid": 74, "leaf": 0.0317780711 }
            ]}
          ]}, 
          { "nodeid": 18, "depth": 4, "split": "f19", "split_condition": -0.694815099, "yes": 37, "no": 38, "missing": 37 , "children": [
            { "nodeid": 37, "depth": 5, "split": "f67", "split_condition": -0.696644127, "yes": 75, "no": 76, "missing": 75 , "children": [
              { "nodeid": 75, "leaf": 0.0228751283 }, 
              { "nodeid": 76, "leaf": -0.181953371 }
            ]}, 
            { "nodeid": 38, "depth": 5, "split": "f8", "split_condition": 6.02711487, "yes": 77, "no": 78, "missing": 77 , "children": [
              { "nodeid": 77, "leaf": 0.136060566 }, 
              { "nodeid": 78, "leaf": 0.0252375323 }
            ]}
          ]}
        ]}
      ]}, 
      { "nodeid": 4, "depth": 2, "split": "f100", "split_condition": 7.5, "yes": 9, "no": 10, "missing": 9 , "children": [
        { "nodeid": 9, "depth": 3, "split": "f20", "split_condition": -0.742828071, "yes": 19, "no": 20, "missing": 19 , "children": [
          { "nodeid": 19, "depth": 4, "split": "f21", "split_condition": 6.28245687, "yes": 39, "no": 40, "missing": 39 , "children": [
            { "nodeid": 39, "depth": 5, "split": "f17", "split_condition": 111.5, "yes": 79, "no": 80, "missing": 79 , "children": [
              { "nodeid": 79, "leaf": 0.00300983456 }, 
              { "nodeid": 80, "leaf": 0.508356571 }
            ]}, 
            { "nodeid": 40, "depth": 5, "split": "f8", "split_condition": 14.0195637, "yes": 81, "no": 82, "missing": 81 , "children": [
              { "nodeid": 81, "leaf": -0.37670058 }, 
              { "nodeid": 82, "leaf": -2.01557684 }
            ]}
          ]}, 
          { "nodeid": 20, "depth": 4, "split": "f101", "split_condition": -3.51683497, "yes": 41, "no": 42, "missing": 41 , "children": [
            { "nodeid": 41, "depth": 5, "split": "f67", "split_condition": -0.745412648, "yes": 83, "no": 84, "missing": 83 , "children": [
              { "nodeid": 83, "leaf": 0.920029461 }, 
              { "nodeid": 84, "leaf": 0.134595796 }
            ]}, 
            { "nodeid": 42, "depth": 5, "split": "f11", "split_condition": 8.5, "yes": 85, "no": 86, "missing": 85 , "children": [
              { "nodeid": 85, "leaf": 0.0503508039 }, 
              { "nodeid": 86, "leaf": 1.3536036 }
            ]}
          ]}
        ]}, 
        { "nodeid": 10, "depth": 3, "split": "f46", "split_condition": 40.5, "yes": 21, "no": 22, "missing": 21 , "children": [
          { "nodeid": 21, "depth": 4, "split": "f19", "split_condition": -0.705616772, "yes": 43, "no": 44, "missing": 43 , "children": [
            { "nodeid": 43, "depth": 5, "split": "f67", "split_condition": -0.723167002, "yes": 87, "no": 88, "missing": 87 , "children": [
              { "nodeid": 87, "leaf": 0.0101535721 }, 
              { "nodeid": 88, "leaf": -0.0748160034 }
            ]}, 
            { "nodeid": 44, "depth": 5, "split": "f10", "split_condition": -668.5, "yes": 89, "no": 90, "missing": 89 , "children": [
              { "nodeid": 89, "leaf": -0.0857835263 }, 
              { "nodeid": 90, "leaf": 0.0143215889 }
            ]}
          ]}, 
          { "nodeid": 22, "depth": 4, "split": "f52", "split_condition": 2.5, "yes": 45, "no": 46, "missing": 45 , "children": [
            { "nodeid": 45, "depth": 5, "split": "f144", "split_condition": 10.5, "yes": 91, "no": 92, "missing": 91 , "children": [
              { "nodeid": 91, "leaf": 0.11852663 }, 
              { "nodeid": 92, "leaf": 1.06779671 }
            ]}, 
            { "nodeid": 46, "depth": 5, "split": "f24", "split_condition": -48.1615105, "yes": 93, "no": 94, "missing": 93 , "children": [
              { "nodeid": 93, "leaf": 0.0216886699 }, 
              { "nodeid": 94, "leaf": 0.215193316 }
            ]}
          ]}
        ]}
      ]}
    ]}, 
    { "nodeid": 2, "depth": 1, "split": "f19", "split_condition": -0.622930169, "yes": 5, "no": 6, "missing": 5 , "children": [
      { "nodeid": 5, "depth": 2, "split": "f53", "split_condition": 0.877485931, "yes": 11, "no": 12, "missing": 11 , "children": [
        { "nodeid": 11, "depth": 3, "split": "f103", "split_condition": 0.5, "yes": 23, "no": 24, "missing": 23 , "children": [
          { "nodeid": 23, "depth": 4, "split": "f17", "split_condition": 77.5, "yes": 47, "no": 48, "missing": 47 , "children": [
            { "nodeid": 47, "depth": 5, "split": "f118", "split_condition": 0.0396783873, "yes": 95, "no": 96, "missing": 95 , "children": [
              { "nodeid": 95, "leaf": 0.0337027125 }, 
              { "nodeid": 96, "leaf": 0.212312818 }
            ]}, 
            { "nodeid": 48, "depth": 5, "split": "f127", "split_condition": 52.4503059, "yes": 97, "no": 98, "missing": 97 , "children": [
              { "nodeid": 97, "leaf": -0.210002452 }, 
              { "nodeid": 98, "leaf": -0.0160770584 }
            ]}
          ]}, 
          { "nodeid": 24, "depth": 4, "split": "f57", "split_condition": 0.264541537, "yes": 49, "no": 50, "missing": 49 , "children": [
            { "nodeid": 49, "depth": 5, "split": "f19", "split_condition": -0.713733554, "yes": 99, "no": 100, "missing": 99 , "children": [
              { "nodeid": 99, "leaf": -0.401252687 }, 
              { "nodeid": 100, "leaf": -0.107562512 }
            ]}, 
            { "nodeid": 50, "depth": 5, "split": "f46", "split_condition": 44.5, "yes": 101, "no": 102, "missing": 101 , "children": [
              { "nodeid": 101, "leaf": -0.0408131406 }, 
              { "nodeid": 102, "leaf": -0.00418624189 }
            ]}
          ]}
        ]}, 
        { "nodeid": 12, "depth": 3, "split": "f19", "split_condition": -0.721688151, "yes": 25, "no": 26, "missing": 25 , "children": [
          { "nodeid": 25, "depth": 4, "split": "f20", "split_condition": -0.741791248, "yes": 51, "no": 52, "missing": 51 , "children": [
            { "nodeid": 51, "depth": 5, "split": "f105", "split_condition": -0.0915956199, "yes": 103, "no": 104, "missing": 103 , "children": [
              { "nodeid": 103, "leaf": -0.565028071 }, 
              { "nodeid": 104, "leaf": -0.21637173 }
            ]}, 
            { "nodeid": 52, "depth": 5, "split": "f67", "split_condition": -0.632228494, "yes": 105, "no": 106, "missing": 105 , "children": [
              { "nodeid": 105, "leaf": 0.0938886404 }, 
              { "nodeid": 106, "leaf": -0.353519052 }
            ]}
          ]}, 
          { "nodeid": 26, "depth": 4, "split": "f69", "split_condition": 0.0794977546, "yes": 53, "no": 54, "missing": 53 , "children": [
            { "nodeid": 53, "depth": 5, "split": "f105", "split_condition": 2.19746423, "yes": 107, "no": 108, "missing": 107 , "children": [
              { "nodeid": 107, "leaf": -0.0601054914 }, 
              { "nodeid": 108, "leaf": 0.225499153 }
            ]}, 
            { "nodeid": 54, "depth": 5, "split": "f65", "split_condition": 4.5, "yes": 109, "no": 110, "missing": 109 , "children": [
              { "nodeid": 109, "leaf": -0.184662163 }, 
              { "nodeid": 110, "leaf": -0.0591314621 }
            ]}
          ]}
        ]}
      ]}, 
      { "nodeid": 6, "depth": 2, "split": "f69", "split_condition": -0.149340987, "yes": 13, "no": 14, "missing": 13 , "children": [
        { "nodeid": 13, "depth": 3, "split": "f1", "split_condition": 1.5, "yes": 27, "no": 28, "missing": 27 , "children": [
          { "nodeid": 27, "depth": 4, "split": "f36", "split_condition": 0.378685057, "yes": 55, "no": 56, "missing": 55 , "children": [
            { "nodeid": 55, "depth": 5, "split": "f21", "split_condition": 1.36564696, "yes": 111, "no": 112, "missing": 111 , "children": [
              { "nodeid": 111, "leaf": 0.115168117 }, 
              { "nodeid": 112, "leaf": -0.164286718 }
            ]}, 
            { "nodeid": 56, "depth": 5, "split": "f19", "split_condition": -0.198155463, "yes": 113, "no": 114, "missing": 113 , "children": [
              { "nodeid": 113, "leaf": 0.0967391953 }, 
              { "nodeid": 114, "leaf": 0.324112654 }
            ]}
          ]}, 
          { "nodeid": 28, "depth": 4, "split": "f24", "split_condition": -0.350147784, "yes": 57, "no": 58, "missing": 57 , "children": [
            { "nodeid": 57, "depth": 5, "split": "f47", "split_condition": 4.5, "yes": 115, "no": 116, "missing": 115 , "children": [
              { "nodeid": 115, "leaf": -0.0131509481 }, 
              { "nodeid": 116, "leaf": 0.0264468808 }
            ]}, 
            { "nodeid": 58, "depth": 5, "split": "f15", "split_condition": 0.998108447, "yes": 117, "no": 118, "missing": 117 , "children": [
              { "nodeid": 117, "leaf": -0.0438456647 }, 
              { "nodeid": 118, "leaf": 0.131948844 }
            ]}
          ]}
        ]}, 
        { "nodeid": 14, "depth": 3, "split": "f53", "split_condition": 0.624691248, "yes": 29, "no": 30, "missing": 29 , "children": [
          { "nodeid": 29, "depth": 4, "split": "f115", "split_condition": -0.269338846, "yes": 59, "no": 60, "missing": 59 , "children": [
            { "nodeid": 59, "depth": 5, "split": "f101", "split_condition": -9.72254086, "yes": 119, "no": 120, "missing": 119 , "children": [
              { "nodeid": 119, "leaf": 0.352647871 }, 
              { "nodeid": 120, "leaf": -0.0145988548 }
            ]}, 
            { "nodeid": 60, "depth": 5, "split": "f11", "split_condition": 2.5, "yes": 121, "no": 122, "missing": 121 , "children": [
